Layer_name:conv1 shape:64_3_7_7 0.02825262770056725 0.01818723231554031 0.01588493213057518 0.002420052420347929 -0.0530153252184391 -0.04735583066940308 0.0185429509729147 0.007990092970430851 0.02488566748797894 0.07672600448131561 0.09026428312063217 -0.01891511864960194 -0.07935618609189987 -0.01536172162741423 -0.02747328765690327 -0.0657535120844841 0.01999213919043541 0.1847634166479111 0.1155285611748695 -0.08998037874698639 -0.09464549273252487 -0.009787650778889656 -0.07923734188079834 -0.1298195123672485 0.09523566067218781 0.2700711190700531 0.09940725564956665 -0.01493158657103777 0.02318046987056732 -0.0464516319334507 -0.18300661444664 -0.1560415476560593 0.05361670255661011 0.08349564671516418 0.03695760294795036 0.04225480556488037 0.04594705998897552 -0.04661617800593376 -0.1270407736301422 -0.02102391794323921 0.03322217985987663 0.02505228854715824 0.01463031582534313 0.03523029759526253 0.004108736757189035 -0.0603850781917572 -0.01716922968626022 0.01151425484567881 0.004791469778865576 0.005868277978152037 0.01875543035566807 0.03614213690161705 0.01715493574738503 -0.09355789422988892 -0.1241000890731812 -0.02680790051817894 -0.007687946315854788 0.02429661899805069 0.1494447588920593 0.2156234383583069 0.01338884700089693 -0.1768722832202911 -0.1229471489787102 -0.07466049492359161 -0.1524940133094788 0.06102424487471581 0.4149985611438751 0.3323344886302948 -0.08150745928287506 -0.2111114710569382 -0.05444471538066864 -0.2552884221076965 -0.2644296288490295 0.2103386223316193 0.5701465010643005 0.2772411406040192 -0.02648117020726204 0.02304881997406483 -0.1778529435396194 -0.4117831885814667 -0.2684544324874878 0.1857926994562149 0.2505556046962738 0.09637067466974258 0.09770126640796661 0.03894836083054543 -0.1923361420631409 -0.2922400534152985 -0.0372992679476738 0.09956539422273636 0.1002194285392761 0.06122111529111862 0.0634438619017601 -0.02231539785861969 -0.1704911887645721 -0.08630268275737762 0.007418273948132992 0.02751929871737957 -0.002440907526761293 0.0190453827381134 0.02179598063230515 -0.003380956128239632 -0.07695896923542023 -0.07131130993366241 0.01439407654106617 0.0003704715636558831 0.02912742272019386 0.117180272936821 0.1507956832647324 -0.009386784397065639 -0.130214586853981 -0.0792325958609581 -0.03340484201908112 -0.08807441592216492 0.08053155243396759 0.3240044116973877 0.2164803147315979 -0.09732457250356674 -0.1750758737325668 -0.01749258674681187 -0.1513499617576599 -0.1808308809995651 0.16710364818573 0.4065239429473877 0.1635522395372391 -0.0770290270447731 0.0203978456556797 -0.109063021838665 -0.2767361700534821 -0.1721979677677155 0.1320384442806244 0.1496907621622086 0.02951569110155106 0.06382621079683304 0.04572181403636932 -0.1156666502356529 -0.1788261234760284 0.0007846743101254106 0.06553538143634796 0.0697101503610611 0.01863539218902588 0.03358491882681847 -0.02011830173432827 -0.1275205463171005 -0.06075569987297058 0.007845760323107243 0.02711843326687813 -0.01187371835112572 -0.00720698107033968 -0.01060732547193766 -0.008829870261251926 -0.008605029433965683 -0.004079406149685383 -0.01125184074044228 -0.009490612894296646 -0.009579639881849289 -0.01196500658988953 -0.01686904393136501 -0.01064575836062431 -0.008692920207977295 -0.01028230227530003 -0.01596290618181229 -0.01235134992748499 -0.01760809309780598 -0.0201156958937645 -0.01674864068627357 -0.008518237620592117 -0.01177399884909391 -0.01316791400313377 -0.01232568919658661 -0.01221589185297489 -0.01420524157583714 -0.01532341632992029 -0.01200633868575096 -0.01313150115311146 -0.01627185009419918 -0.01346531882882118 -0.01796557009220123 -0.01258958131074905 -0.01075900625437498 -0.009090579114854336 -0.01270144712179899 -0.00830464344471693 -0.004776992835104465 -0.01222234405577183 -0.008918403647840023 -0.00981471873819828 -0.004229113459587097 -0.01088459324091673 -0.009152187034487724 -0.003278574906289577 -0.004666127264499664 -0.002502480754628778 -0.003163924440741539 0.002209475263953209 -0.004229425452649593 0.05044154077768326 0.05127302929759026 0.05024304986000061 0.0520874448120594 0.04615570604801178 0.04785165190696716 0.03647379204630852 0.0546954981982708 0.04934429004788399 0.05007193610072136 0.04338183254003525 0.04243211820721626 0.04033510386943817 0.03724320977926254 0.05220837891101837 0.04947399720549583 0.04468030482530594 0.04313002526760101 0.04245661944150925 0.04378856718540192 0.03858083114027977 0.05015351995825768 0.04431633278727531 0.0450904369354248 0.04452340677380562 0.03894597664475441 0.04159544408321381 0.04442031681537628 0.04418009519577026 0.04041806608438492 0.03407769650220871 0.03850900009274483 0.03764424473047256 0.04076860472559929 0.04391073063015938 0.03835023194551468 0.03787833079695702 0.03184079751372337 0.03352909907698631 0.03059356287121773 0.04032333567738533 0.04249243810772896 0.0267034862190485 0.03121605888009071 0.02992419525980949 0.03101167269051075 0.03553350642323494 0.04523739963769913 0.04367370530962944 -0.04861733317375183 -0.03879091516137123 -0.03860045969486237 -0.0318353995680809 -0.0351354293525219 -0.02864704094827175 -0.03563825786113739 -0.03702039644122124 -0.03056546859443188 -0.02565765380859375 -0.0301276370882988 -0.02886897511780262 -0.02948683500289917 -0.03091396018862724 -0.03398334607481956 -0.02571366541087627 -0.02880724333226681 -0.0289335772395134 -0.02684804797172546 -0.02619621530175209 -0.03218118846416473 -0.02797027677297592 -0.02284783497452736 -0.02512158453464508 -0.02572897635400295 -0.03186367079615593 -0.03236043453216553 -0.03103682957589626 -0.02679585292935371 -0.02112449333071709 -0.02831471525132656 -0.02518888376653194 -0.02750471793115139 -0.03110347874462605 -0.02964877709746361 -0.02083195745944977 -0.01340904366225004 -0.02353208512067795 -0.0252794586122036 -0.02913442812860012 -0.02769787609577179 -0.03415150567889214 -0.0239325575530529 -0.01636642403900623 -0.01963836885988712 -0.02272445522248745 -0.0266596544533968 -0.02453209646046162 -0.03311691433191299 0.001514887320809066 0.004803026095032692 0.01309996657073498 0.01190588809549809 0.006386430002748966 0.004765159916132689 0.01125061511993408 -0.004218465648591518 -0.002378370380029082 -0.002101912163197994 0.0009907936910167336 -0.001196061843074858 0.01061808504164219 0.01445532497018576 0.005871670320630074 -0.004165190737694502 0.001817552372813225 0.005275598261505365 0.008499046787619591 0.02250469475984573 0.02496654540300369 0.01017999835312366 0.01026322040706873 0.01348489336669445 0.01662303321063519 0.01974641159176826 0.02934202551841736 0.03330305963754654 0.01220788899809122 0.01613936014473438 0.0182811301201582 0.0204714722931385 0.02198049798607826 0.02502425201237202 0.03198334574699402 0.005340652074664831 0.007043390069156885 0.009350234642624855 0.008466755039989948 0.009815961122512817 0.01136337500065565 0.01295679807662964 0.005248038563877344 0.007140914909541607 0.01210316922515631 0.003284283215180039 0.00240169744938612 0.005088344216346741 0.01150787156075239 0.003463247092440724 0.00450406176969409 0.0122699486091733 0.008455595932900906 0.001537223113700747 -0.000990210217423737 0.004551972728222609 -0.01033036317676306 -0.01329219061881304 -0.01521722692996264 -0.01449318043887615 -0.01933056302368641 -0.006919467821717262 -0.002827407792210579 -0.001989633310586214 -0.01834438554942608 -0.01417191233485937 -0.01106466632336378 -0.009708783589303493 0.003691524034366012 0.005318853072822094 0.002571555553004146 -0.002464856021106243 0.001474742661230266 0.005391168873757124 0.005540523678064346 0.0125908525660634 0.01467776577919722 0.003592915832996368 0.004325150512158871 0.008743943646550179 0.01312011945992708 0.01020894292742014 0.0108884833753109 0.01598025485873222 -0.005378373432904482 -0.006852919235825539 -0.001018810085952282 -0.002203636337071657 -0.003001949284225702 -0.004360368009656668 -0.004063643515110016 -0.004380009602755308 -0.007722754962742329 0.0008012136677280068 -0.007356130518019199 -0.01061530131846666 -0.01108736079186201 -0.005714391358196735 0.002699663862586021 0.004258426371961832 0.01123799011111259 0.008193512447178364 0.002227695193141699 0.000620829698164016 0.005087287630885839 -0.009806116111576557 -0.01423649303615093 -0.01858908124268055 -0.01773247867822647 -0.01870619878172874 -0.001323597389273345 0.0001910616701934487 -0.001995382364839315 -0.02172522619366646 -0.01859810948371887 -0.01330057438462973 -0.008965576998889446 0.008954033255577087 0.009451978839933872 0.002622169908136129 -0.004030272830277681 -0.0002057412348221987 0.006524227559566498 0.01018624845892191 0.01977338455617428 0.02086855098605156 0.005698442924767733 0.006980454549193382 0.01315418165177107 0.02112733572721481 0.02283394895493984 0.02435262501239777 0.02699965424835682 -0.00172756367828697 -0.0008306973613798618 0.006746368948370218 0.009092857129871845 0.01125696301460266 0.0106595978140831 0.008979367092251778 0.0005563831073231995 -0.001325626508332789 0.007320504635572433 0.001651557395234704 0.001744739478453994 0.000584031455218792 0.003974885679781437 0.01745119690895081 0.001527792890556157 -0.004915198311209679 -0.008791273459792137 -0.0112437792122364 -0.005413776729255915 -0.009945864789187908 -0.0106695955619216 -0.02315366640686989 -0.02784572914242744 -0.04317294433712959 -0.05057191476225853 -0.02643714658915997 -0.04536272212862968 -0.006289503537118435 -0.01786256581544876 -0.04510100930929184 -0.02961639314889908 0.01282035373151302 -0.01275398675352335 -0.04520103707909584 0.009626025334000587 -0.006235540844500065 -0.03507744148373604 0.07701537758111954 0.2242550104856491 0.04054136201739311 -0.05094654113054276 -0.001337706344202161 -0.02754740417003632 -0.04697776958346367 0.03614513576030731 0.1587178111076355 0.02544364333152771 -0.04162890464067459 0.0006919777370058 -0.02329167164862156 -0.04014459624886513 -0.06116560101509094 -0.05289599671959877 -0.03245550394058228 -0.03514333441853523 0.01148971356451511 -0.002480617025867105 -0.005541713442653418 -0.03770151734352112 -0.02297894284129143 -0.02283994294703007 -0.02391570620238781 0.008691195398569107 0.006870562676340342 -0.002846992341801524 -0.0008498256793245673 0.0007215593941509724 0.003107626456767321 0.003363643307238817 -0.008235250599682331 -0.004527764860540628 -0.01265873853117228 -0.02090788632631302 -0.02928043715655804 -0.007581843063235283 -0.01320295128971338 -0.01067603658884764 -0.009065031073987484 -0.03926627710461617 -0.02909888699650764 -0.006052063778042793 -0.01822078041732311 -0.02843949198722839 0.003558621741831303 -0.0001262597215827554 -0.03505934029817581 0.06116469949483871 0.1851321309804916 0.02248033322393894 -0.03914553299546242 -0.004413300193846226 -0.009980428963899612 -0.0367695651948452 0.02959492616355419 0.1317830681800842 0.008045978844165802 -0.03546769917011261 -0.00703862588852644 -0.009293976239860058 -0.02946727909147739 -0.04489368945360184 -0.04570436477661133 -0.03308460861444473 -0.02705681510269642 0.003633493324741721 0.01002149935811758 0.004870799835771322 -0.009028514847159386 0.003043333068490028 -0.009475315921008587 -0.007411245256662369 -0.01024264842271805 0.01358036883175373 0.0005963692674413323 0.002433918183669448 -0.001124924630858004 0.00161587935872376 -0.002492592902854085 -0.007296719588339329 0.02101327665150166 0.01477931626141071 0.01411146577447653 0.004675819538533688 0.0213620662689209 0.01049452647566795 -0.01479230169206858 0.0141479317098856 -0.01290429662913084 -0.0004313631216064095 0.01905849575996399 0.004853116348385811 0.0004451266722753644 -0.006227661855518818 0.02355698682367802 -0.01729845255613327 0.04585569351911545 0.1477554738521576 0.02485345304012299 -0.01218413840979338 -0.01348961144685745 0.01304769795387983 -0.02016049064695835 0.01903531700372696 0.0963377058506012 0.01121289376169443 -0.008892678655683994 -0.02378915250301361 0.004449464380741119 -0.005587231367826462 -0.01654945127665997 -0.02601718157529831 -0.01957087591290474 -0.005997266620397568 -0.02117829211056232 0.01088220998644829 0.01239182334393263 0.0157729759812355 0.02452543750405312 0.0020335353910923 0.009021716192364693 0.02267266809940338 0.06681137531995773 0.08829883486032486 0.1410070210695267 0.1440518349409103 0.1514120846986771 0.1463778167963028 -0.01324009150266647 0.07145796716213226 0.1218331605195999 0.1885988712310791 0.2027846723794937 0.1912857890129089 0.1375878602266312 -0.04059086367487907 0.06119813024997711 0.1320184469223022 0.1890920251607895 0.1879743188619614 0.1251896023750305 0.06454668194055557 0.0387633889913559 0.09148015826940536 0.1358021199703217 0.1622152477502823 0.1383709013462067 0.1117259487509727 0.0700104609131813 -0.001607712940312922 -0.01330921985208988 -0.04073840007185936 -0.1120188310742378 -0.1235423907637596 -0.09339813143014908 -0.08210191130638123 0.02316727489233017 -0.09178546071052551 -0.1815021187067032 -0.2849068343639374 -0.2996914982795715 -0.2194630354642868 -0.1664706468582153 -0.03956068679690361 -0.1372760683298111 -0.2226841598749161 -0.3265367150306702 -0.3141509294509888 -0.2426468729972839 -0.1773850321769714 0.07074174284934998 0.08458434045314789 0.0820460245013237 0.08774410933256149 0.07625715434551239 0.08670370280742645 0.08192750811576843 0.05280811339616776 0.05765863880515099 0.06473515927791595 0.05120256915688515 0.05658157542347908 0.07099562883377075 0.07452032715082169 0.02999680675566196 0.02546434849500656 0.02488436363637447 0.02306303195655346 0.04113118723034859 0.01499501336365938 0.02782359533011913 0.0152138713747263 -0.001168764778412879 -0.002954180119559169 0.003270405344665051 0.006451108027249575 0.0137472553178668 0.01445199269801378 -0.01770644821226597 -0.03690942376852036 -0.04936079308390617 -0.05309464409947395 -0.02716078422963619 -0.01799472235143185 -0.03531710803508759 -0.01627457514405251 -0.06442058086395264 -0.07525637745857239 -0.06138463690876961 -0.0767366960644722 -0.06236577033996582 -0.07264604419469833 -0.04961445182561874 -0.07212352752685547 -0.08882725983858109 -0.09755595028400421 -0.1121777221560478 -0.1042540818452835 -0.07909253984689713 -0.09361757338047028 -0.1544790118932724 -0.1793033480644226 -0.2286926954984665 -0.2304419577121735 -0.2482472509145737 -0.2552497088909149 -0.03296969830989838 -0.1217088848352432 -0.1816712617874146 -0.2513756453990936 -0.2568972706794739 -0.2254533171653748 -0.1804472953081131 0.007970415987074375 -0.07290010154247284 -0.1564427763223648 -0.2195216715335846 -0.2151379734277725 -0.1855100393295288 -0.1090565472841263 -0.05254172533750534 -0.09560921788215637 -0.1337780654430389 -0.1551372855901718 -0.1698825508356094 -0.136177271604538 -0.0717078223824501 0.00366591103374958 0.05521290376782417 0.08283362537622452 0.122844398021698 0.1464633941650391 0.1377016752958298 0.11998101323843 0.03222987055778503 0.1472109407186508 0.2364398837089539 0.3850520253181458 0.3810546398162842 0.3111234903335571 0.2124465554952621 0.06731727719306946 0.2053791135549545 0.2900734543800354 0.452463299036026 0.430865615606308 0.3308151066303253 0.2526817917823792 -0.07706021517515182 -0.02919887378811836 -0.05851801112294197 -0.01546821743249893 -0.01067984476685524 -0.03504034504294395 -0.03727506473660469 -0.02930224314332008 0.02511746436357498 0.001696276245638728 0.05534224584698677 0.08578982949256897 0.06498753279447556 0.05560823157429695 -0.05787673220038414 -0.01041666697710752 -0.003836144926026464 0.07370862364768982 0.111431822180748 0.09582001715898514 0.0844414159655571 -0.03429633378982544 0.03526953607797623 0.06429103761911392 0.1752033978700638 0.2116097658872604 0.1961134970188141 0.1863353699445724 -0.0278784055262804 0.02851615473628044 0.0799819603562355 0.1715845018625259 0.2313027828931808 0.2025406509637833 0.1704798340797424 -0.04914350807666779 0.03535499796271324 0.06843693554401398 0.1579129099845886 0.1854474395513535 0.1596695631742477 0.1338751167058945 -0.05788059532642365 0.02548444457352161 0.05209800601005554 0.1432206332683563 0.1629666388034821 0.1392215490341187 0.118074893951416 0.1108976453542709 0.06348955631256104 0.06802547723054886 0.04890919849276543 0.05193504318594933 0.05383458361029625 0.08565777540206909 0.06828727573156357 0.006005759350955486 0.007800936698913574 -0.06623464822769165 -0.08131346851587296 -0.05744710564613342 -0.01228924188762903 0.07247406989336014 0.01142666023224592 -0.04025769233703613 -0.1731026023626328 -0.2056473791599274 -0.164379820227623 -0.08917568624019623 0.06093975529074669 -0.03080023638904095 -0.1358242481946945 -0.3113664388656616 -0.3712623119354248 -0.3159430921077728 -0.2079374045133591 0.05739104747772217 -0.03998830914497375 -0.1389241367578506 -0.3546372652053833 -0.4046009480953217 -0.3323836326599121 -0.2264264076948166 0.06802365183830261 -0.01626382581889629 -0.08411166816949844 -0.2656724154949188 -0.3198514878749847 -0.2554823160171509 -0.1674324572086334 0.09292677789926529 -0.006007383111864328 -0.04572109505534172 -0.1582683026790619 -0.1981719732284546 -0.1786008477210999 -0.1207595765590668 -0.02090279944241047 -0.03301896527409554 -0.01533201150596142 -0.03266577422618866 -0.02672943659126759 -0.03497940301895142 -0.04822104051709175 -0.04635083675384521 -0.04406673088669777 -0.009512806311249733 -0.003620282281190157 -0.01044897083193064 -0.01414812728762627 -0.04100310802459717 -0.03585375845432281 -0.01782992109656334 0.02776392549276352 0.06202678754925728 0.07703933119773865 0.05307988077402115 -0.01629331894218922 -0.02744451910257339 0.006858681328594685 0.05637411028146744 0.1484177112579346 0.1624501049518585 0.1124696061015129 0.01345681585371494 -0.0263360571116209 -0.01496945135295391 0.05329162999987602 0.1511341482400894 0.2056956738233566 0.1360764801502228 0.02203819341957569 -0.02554318308830261 -0.02442287281155586 0.02385950647294521 0.09153041988611221 0.122768260538578 0.1097327470779419 0.0170736275613308 -0.02379407733678818 -0.0612618550658226 -0.01687261834740639 0.01505741849541664 0.0392414778470993 0.02106628939509392 -0.008505305275321007 0.02593261376023293 0.02087587118148804 0.02037672512233257 0.02035746909677982 0.0204279962927103 0.02231680415570736 0.03059297241270542 0.01011551823467016 0.002620802260935307 -0.0004108060384169221 0.01542038004845381 0.03068287298083305 0.02820068784058094 0.03668722882866859 0.001619588816538453 -0.01052768435329199 -0.01625713147222996 0.003987424075603485 0.02942619659006596 0.03607815131545067 0.03603911027312279 0.003602207871153951 -0.008571315556764603 -0.01099881064146757 0.005992481019347906 0.03770939260721207 0.04606134817004204 0.03719849139451981 -0.002487492514774203 -0.01346924155950546 -0.005473988596349955 0.008991514332592487 0.03184301406145096 0.04001447558403015 0.03480618447065353 -0.004593614023178816 -0.0193527489900589 -0.01648054458200932 -0.005392765160650015 0.0240813922137022 0.03835080936551094 0.02481213212013245 -0.006010632030665874 -0.009719275869429111 -0.02061918005347252 -0.01544786058366299 0.01276967115700245 0.02739665471017361 0.02222960628569126 0.01517610345035791 0.006785097997635603 0.004837613087147474 -0.0001705143949948251 -0.000975242059212178 -0.004231963772326708 0.0061156852170825 -6.068100992706604e-05 -0.01425210945308208 -0.02325201779603958 -0.01225976832211018 0.0008283010101877153 -0.002301538828760386 0.006984700448811054 -0.003961159847676754 -0.02428644523024559 -0.03432068601250648 -0.01958844438195229 0.001844280399382114 0.005963940173387527 0.008150272071361542 4.020224878331646e-05 -0.01854868791997433 -0.02438320592045784 -0.01489595510065556 0.01053039636462927 0.01482404954731464 0.006812267936766148 -0.0006021815352141857 -0.01811198517680168 -0.01475737150758505 -0.008717505261301994 0.007457809988409281 0.01032115053385496 0.003301869379356503 0.0026828374247998 -0.02150768041610718 -0.02413546666502953 -0.01970654726028442 0.001802125130780041 0.01085713040083647 -0.003852828405797482 -0.001198306330479681 -0.01554317306727171 -0.02984621562063694 -0.02979665622115135 -0.008354873396456242 0.0007581918616779149 -0.005853021983057261 0.0254614632576704 0.02039860188961029 0.01772118732333183 0.01074494887143373 0.005682590883225203 -0.0002471270854584873 0.003607317339628935 0.01801964640617371 0.005664858501404524 -0.006298298481851816 0.001494631171226501 0.009507735259830952 0.003357414854690433 0.003268506145104766 0.02004563622176647 0.001797502511180937 -0.01126797590404749 -0.001326916972175241 0.01275275554507971 0.01119684893637896 0.006692614872008562 0.02444448322057724 0.009538528509438038 0.0009889843640848994 0.005826762411743402 0.02220571599900723 0.01892371661961079 0.006167006678879261 0.02391346916556358 0.009872145019471645 0.01186805590987206 0.01460716407746077 0.02122387103736401 0.01327920332551003 -9.960573515854776e-05 0.02710049040615559 0.008241265080869198 0.00496331974864006 0.005907695740461349 0.01862511597573757 0.01707880198955536 -0.005901811178773642 0.02234569936990738 0.01014831382781267 -0.003995767328888178 -0.008237993344664574 0.00776750361546874 0.009052528068423271 -0.004599492531269789 0.00758947292342782 0.02291926369071007 0.05192738398909569 0.05251379311084747 0.04714294150471687 0.015404948964715 -0.01823241636157036 -0.01214825361967087 -0.04980910196900368 -0.07741069048643112 -0.05462802201509476 -0.005122174043208361 -0.009074506349861622 -0.06673450022935867 0.04301880300045013 -0.03617950901389122 -0.05146398767828941 -0.02232676558196545 0.02342772670090199 0.001253110007382929 -0.04166604951024055 0.04066436365246773 0.01660906709730625 0.03828157484531403 0.06250470876693726 0.04021057114005089 -0.02740844711661339 -0.05118835717439651 0.01172046642750502 -0.009485213086009026 0.01299357134848833 -0.005304170772433281 -0.01502452790737152 -0.02301845513284206 -0.03487309813499451 -0.02036283910274506 -0.043780617415905 -0.027388671413064 -0.02660314179956913 -0.02737581729888916 -0.03023794107139111 -0.04643110558390617 -0.001262468518689275 -0.03325793147087097 -0.02993273176252842 -0.01409148890525103 -0.01009190455079079 -0.02141162380576134 -0.03021500818431377 0.007176387589424849 0.01164585445076227 0.01972327940165997 0.007239709608256817 0.01935031078755856 0.0199832059442997 0.01132545433938503 -0.006664745975285769 -0.1140145063400269 -0.1922508329153061 -0.168055534362793 -0.06974472105503082 0.002709065098315477 -0.01230343990027905 0.03180359303951263 -0.1107986867427826 -0.1668435037136078 -0.1157537996768951 -0.005922588519752026 0.03141090646386147 0.02154796198010445 0.02445364743471146 -0.01689114235341549 -0.002322820946574211 0.04041373729705811 0.06045016646385193 0.01948131807148457 0.01394095458090305 0.01068484038114548 0.009849246591329575 0.0431152731180191 0.0360298790037632 0.03139550611376762 0.03134713694453239 0.03793960809707642 -0.009875543415546417 -0.003898171707987785 0.01946376264095306 0.0194116085767746 0.0109529746696353 0.008742650970816612 0.006063123233616352 0.02435670420527458 0.0256817489862442 0.02655521780252457 0.0329049825668335 0.02911700308322906 0.0252093430608511 0.02362425439059734 0.022275660187006 0.04156269133090973 0.04005817696452141 0.01736662164330482 0.02095315232872963 0.0218957494944334 0.01921962946653366 0.01257191691547632 -0.07857082784175873 -0.1615890860557556 -0.1510005593299866 -0.06095908954739571 0.02777605876326561 0.02956101670861244 0.04058847948908806 -0.09409114718437195 -0.1643304526805878 -0.1290255039930344 -0.0201520137488842 0.03836956992745399 0.03913439065217972 0.01961969770491123 -0.01029834430664778 -0.007686974480748177 0.03045602701604366 0.05057194456458092 0.02348841913044453 0.0295070968568325 -0.006047858856618404 0.01401657052338123 0.04259543865919113 0.04516732692718506 0.04176202043890953 0.0449172705411911 0.0565485842525959 -0.02946094051003456 -7.860681944293901e-05 0.01922127977013588 0.01985852979123592 0.008696746081113815 0.003106022253632545 0.008873956277966499 0.01724156364798546 0.04153658077120781 0.0302542932331562 0.02519229613244534 0.01457351539283991 0.006382979918271303 0.01456525083631277 0.01483854092657566 0.0009717922657728195 -0.007348642684519291 -0.01781780458986759 -0.01479819789528847 0.008753078058362007 0.00975686963647604 0.01183299720287323 -0.004536308348178864 -0.01735122501850128 -0.02787312306463718 -0.02823349647223949 0.001661793095991015 0.02215650118887424 0.01213476434350014 -0.02402628399431705 -0.04563489183783531 -0.04050823301076889 -0.04039872065186501 -0.02590940892696381 -0.008667337708175182 7.138292858144268e-05 -0.0565185658633709 -0.04579390212893486 0.006372429430484772 0.01195694878697395 -0.02734495140612125 -0.04129962995648384 -0.006155507639050484 -0.04359123855829239 -0.009099239483475685 0.1301912665367126 0.1489656418561935 0.01047157496213913 -0.03759241104125977 0.005026179365813732 -0.02971386350691319 -0.04467078670859337 0.02479633502662182 0.03449287265539169 -0.02811905927956104 -0.02898946031928062 0.0156850591301918 -0.0001888348488137126 -0.01216682977974415 -0.03630459308624268 -0.03670070320367813 -0.01950681395828724 -0.02262138016521931 -0.01420990284532309 -0.02880020998418331 -0.03127752244472504 -0.02821261249482632 -0.02321743406355381 -0.01925236918032169 -0.0287104956805706 -0.01457182224839926 -0.02360828220844269 -0.02971386350691319 -0.02467383444309235 -0.01518407743424177 -0.01412736438214779 -0.01032149977982044 -0.02602092735469341 -0.03922149911522865 -0.03786856308579445 -0.00934185553342104 -0.0059176255017519 -0.02333036251366138 -0.0340801440179348 -0.01744789630174637 -0.03596021980047226 0.01474779658019543 0.09874853491783142 0.091098353266716 0.009725949726998806 -0.03832967951893806 -0.02300655655562878 -0.01614305190742016 0.05585459619760513 0.2222937494516373 0.2329667657613754 0.05482156947255135 -0.0291870404034853 -0.03813323378562927 -0.03866545855998993 -0.02200260944664478 0.07535122334957123 0.08193910121917725 -0.01107486430555582 -0.0412956140935421 -0.04172856733202934 -0.04380521178245544 -0.04259184002876282 -0.04389376193284988 -0.03493132069706917 -0.03862899169325829 -0.05453682690858841 -0.02196856774389744 0.007758347783237696 -0.003529503010213375 0.0004859675245825201 0.003294268855825067 -0.01042136643081903 -0.03583518043160439 0.0009331963374279439 0.04940688982605934 0.04797584936022758 0.04857830703258514 0.05146623402833939 0.03627864271402359 0.02567071095108986 -0.01129909977316856 0.04921268299221992 0.0505700595676899 0.05693918094038963 0.04352341964840889 0.02760354243218899 0.02538288570940495 0.02283522486686707 0.0681317076086998 0.07946165651082993 0.1069847121834755 0.08328518271446228 0.04804478213191032 0.04258675500750542 0.01383969187736511 0.06800657510757446 0.08250963687896729 0.1604931950569153 0.1555049270391464 0.06436693668365479 0.04911741614341736 -0.009615320712327957 0.03741650283336639 0.02190272510051727 0.06810033321380615 0.06693205237388611 0.02064238861203194 0.03193042054772377 -0.02156777493655682 0.03651545196771622 0.03604483231902122 0.03891495242714882 0.03812536224722862 0.03520818799734116 0.02893061004579067 0.002698238473385572 0.00654562097042799 0.00897507555782795 0.02701480314135551 0.007335316855460405 -0.08221065253019333 0.05213966220617294 0.007836291566491127 0.01120405737310648 0.008050184696912766 -0.1091019287705421 0.05423158779740334 0.1441006362438202 -0.1147925853729248 -0.0150544811040163 -0.002638252452015877 -0.01820254512131214 0.2418755888938904 -0.3158801198005676 0.03191874548792839 0.08266038447618484 -0.02400842681527138 0.1173547506332397 -0.2322220951318741 0.001843949197791517 0.4212053120136261 -0.3599909245967865 0.07003230601549149 0.0009838017867878079 -0.06318916380405426 0.3609210848808289 -0.4659146964550018 0.05391492322087288 0.2367396205663681 -0.07967489957809448 0.06647483259439468 -0.1785992681980133 0.02137871645390987 0.2919058203697205 -0.2838873565196991 0.02816774509847164 0.005258204881101847 -0.02309742197394371 0.11571254581213 -0.1408171206712723 0.005800400860607624 0.07462093234062195 -0.03734682872891426 0.03149184957146645 -0.003665045136585832 -0.002342000836506486 0.0127006433904171 0.02845976874232292 0.02993483655154705 -0.07799278944730759 0.0406159870326519 0.008305632509291172 -0.001813011593185365 0.003774260170757771 -0.1169665306806564 -0.007627909537404776 0.1577556878328323 -0.1033398658037186 -0.008323465473949909 -0.01151264365762472 0.005208300892263651 0.3438002169132233 -0.3656898438930511 -0.02103111334145069 0.1276183575391769 -0.02226105891168118 0.1066436022520065 -0.3416672050952911 0.01587451808154583 0.5997690558433533 -0.4164384007453918 0.0325862318277359 -0.0005735838203690946 -0.01017989311367273 0.3526241481304169 -0.658727765083313 0.11180629581213 0.3115305304527283 -0.1017977595329285 0.06412933021783829 -0.1822828203439713 0.1165486872196198 0.2813034951686859 -0.3603516817092896 0.04259835928678513 0.0155210280790925 -0.03026950918138027 0.09521427750587463 -0.137149304151535 0.04095584154129028 0.07344886660575867 -0.05043549835681915 0.01585974544286728 -0.01477274484932423 -0.02189408242702484 -0.004229192156344652 0.03304852172732353 0.02593060582876205 -0.06434202939271927 0.04268878698348999 0.008422532118856907 0.02354792691767216 0.002050293143838644 -0.1318719089031219 0.004758473951369524 0.1586737036705017 -0.1269066482782364 -0.01774316839873791 0.002369818044826388 0.01782737486064434 0.2845367789268494 -0.3531050384044647 0.01641548424959183 0.1144576966762543 -0.02895430475473404 0.09617406129837036 -0.2820960581302643 0.02202623151242733 0.4782588481903076 -0.4099072217941284 0.05305446311831474 -0.004408855922520161 -0.03730121999979019 0.3430490493774414 -0.5280508995056152 0.1041930541396141 0.2490312457084656 -0.1013419851660728 0.06445158272981644 -0.1702262759208679 0.06195927783846855 0.2831200063228607 -0.3000349700450897 0.04077532887458801 0.01391136925667524 -0.03340393677353859 0.1113198101520538 -0.1386928856372833 -0.001236331649124622 0.07692792266607285 -0.02736226469278336 -0.0059475963935256 -0.02794642746448517 0.01018840912729502 -0.0005256065051071346 0.03653114289045334 -0.05024124681949615 -0.003773691598325968 -0.003164860187098384 -0.01116666197776794 0.04186036065220833 0.03943620249629021 0.0004820849862881005 -0.08795753121376038 0.04248370602726936 -0.002729401923716068 -0.01129908300936222 0.08240374177694321 0.01464672572910786 -0.09589332342147827 -0.1273179799318314 0.08448660373687744 0.01491990126669407 0.009330261498689651 0.1159021779894829 -0.0007303275051526725 -0.1779665052890778 -0.0984075665473938 0.1163828372955322 0.03584113344550133 0.0217476561665535 0.1049221530556679 -0.02542052790522575 -0.1850915402173996 -0.03990586474537849 0.1146295592188835 0.02650650776922703 0.0192308072000742 0.07732924073934555 -0.05829627811908722 -0.1258618235588074 -0.009122014045715332 0.08962484449148178 0.01423362083733082 -0.02017608657479286 0.02241302467882633 -0.07650482654571533 -0.0628056526184082 -0.003877115901559591 0.08909434825181961 0.003222553292289376 -0.008760794997215271 0.02989109978079796 -0.004777261521667242 -0.03820507600903511 -0.1034382730722427 0.0127757228910923 0.07743704319000244 0.0280883926898241 0.08858142048120499 0.02680259756743908 -0.1253040283918381 -0.1745904088020325 0.0805165022611618 0.1040993705391884 0.05216269567608833 0.1622364670038223 -0.01128992158919573 -0.2945347428321838 -0.2377543896436691 0.175506129860878 0.1663305908441544 0.06642315536737442 0.1845908910036087 -0.09525027871131897 -0.4547973871231079 -0.2183152735233307 0.2421054691076279 0.2112711369991302 0.06960089504718781 0.139294445514679 -0.1357491165399551 -0.4345742464065552 -0.1159162893891335 0.2568284273147583 0.2077619880437851 0.05822007358074188 0.08712677657604218 -0.1508565247058868 -0.3063182532787323 -0.02592711709439754 0.2183567881584167 0.1534402519464493 0.01477423403412104 0.01877580024302006 -0.144216924905777 -0.1801396608352661 -0.003152817953377962 0.1822428405284882 0.1019266545772552 -0.01756677590310574 0.007264124229550362 -0.01388879772275686 -0.04946117103099823 -0.09649027138948441 0.005775959230959415 0.03999034687876701 0.009422914125025272 0.04262078553438187 0.01066471356898546 -0.08419883251190186 -0.1318074315786362 0.07685066014528275 0.06248589605093002 0.007196434773504734 0.09781055897474289 -0.008076923899352551 -0.1912715882062912 -0.1613046526908875 0.1348510086536407 0.09105182439088821 0.008453936316072941 0.1172761395573616 -0.0435669794678688 -0.2837355434894562 -0.1293381005525589 0.1726092845201492 0.1155115440487862 0.008984039537608624 0.08209113031625748 -0.05562790855765343 -0.2844540774822235 -0.07657512277364731 0.1756560355424881 0.108671709895134 0.01876963302493095 0.06831620633602142 -0.06906703859567642 -0.1957263946533203 -0.01584798097610474 0.1599902212619781 0.08989114314317703 -0.01251797191798687 -0.0002400453522568569 -0.08649005740880966 -0.1334468722343445 -0.006394926924258471 0.1435030400753021 0.04703109711408615 0.01281347963958979 0.02649040892720222 -0.001449829083867371 -0.05804797261953354 0.02679852582514286 0.01733629405498505 -0.007756276056170464 -0.01979747600853443 -0.02904992923140526 0.01326699089258909 0.128467932343483 0.02179386839270592 -0.1298689991235733 -0.04777847230434418 -0.0168891679495573 0.007123247254639864 0.01605847664177418 -0.2419631779193878 -0.2477582991123199 0.06216128170490265 0.1289394050836563 -0.02685471810400486 -0.02450430206954479 -0.1600755900144577 0.0465092808008194 0.3955829441547394 0.1809415072202682 -0.03398933634161949 0.01693693920969963 0.005657539237290621 0.1979012340307236 0.3222556412220001 -0.1076136901974678 -0.2280949652194977 -0.03037301823496819 -0.009498709812760353 0.04526049271225929 -0.04415380954742432 -0.2792201042175293 -0.127318486571312 0.1258100420236588 0.02466856688261032 0.001890632207505405 -0.03084257803857327 -0.02773668617010117 0.06980729848146439 0.06941498070955276 -0.04353844374418259 -0.02969975583255291 0.004672614857554436 0.01556449010968208 -0.01880942098796368 -0.05161703005433083 0.04666551947593689 0.0377032570540905 -0.002936697565019131 0.001305768033489585 -0.01002292893826962 0.06452897191047668 0.1634064316749573 -0.02559997327625751 -0.1826370060443878 -0.04808112978935242 -0.02438320592045784 -0.004921439103782177 -0.0360289067029953 -0.4036440551280975 -0.3425513207912445 0.09857036173343658 0.1876062601804733 -0.01855941861867905 -0.06177355721592903 -0.2262848764657974 0.1354052722454071 0.6451539993286133 0.3101159334182739 -0.04662604629993439 0.02527592144906521 0.0584256686270237 0.3554584980010986 0.5076180696487427 -0.1511741131544113 -0.3991348147392273 -0.1255969107151031 -0.006366627756506205 0.05811081081628799 -0.08978227525949478 -0.4656470417976379 -0.3232709467411041 0.06954659521579742 0.04562875628471375 0.006008678581565619 -0.04125872254371643 -0.05461828038096428 0.08431871980428696 0.1490202248096466 0.03024725615978241 0.0156647227704525 -0.008537685498595238 -0.006570041179656982 -0.05181759595870972 -0.06249980255961418 0.05470962822437286 0.04875584691762924 0.01605482958257198 0.0154207544401288 -0.005944858305156231 0.07575196027755737 0.2344674915075302 0.0487000085413456 -0.1472915709018707 -0.04702665284276009 0.01352155487984419 0.04886376857757568 0.05378613993525505 -0.2832679152488708 -0.3187943696975708 0.03648666664958 0.1173621043562889 -0.01118784956634045 -0.05317921563982964 -0.2341628819704056 -0.01073053758591413 0.4266298115253448 0.1788301765918732 -0.07615339756011963 0.007879546843469143 0.001223473693244159 0.2252319306135178 0.3531188368797302 -0.1435188949108124 -0.2753762602806091 -0.03829707577824593 -0.007146248128265142 0.04555818811058998 -0.07953018695116043 -0.3641626238822937 -0.1967041194438934 0.1383762210607529 0.07254192233085632 0.01148014608770609 -0.02749333530664444 -0.02061264216899872 0.129729151725769 0.1584131419658661 0.002103897277265787 -0.02230754494667053 -0.002396881813183427 0.01161325629800558 0.007364816498011351 -0.01948234997689724 -0.01460707280784845 -0.002971354173496366 0.01399585884064436 -0.008301606401801109 -0.02274499647319317 0.008237374946475029 0.07875581085681915 0.04855465888977051 -0.02175354026257992 -0.04046795889735222 0.01236993260681629 -0.03872724622488022 -0.1300265341997147 -0.1212224662303925 0.07187090069055557 0.137415274977684 0.04336700960993767 0.03242035955190659 0.06491423398256302 0.06650740653276443 -0.1418019384145737 -0.3296386301517487 -0.1627868711948395 -0.01928018964827061 -0.009193664416670799 -0.01055882684886456 0.1603720188140869 0.3387695848941803 0.1969815194606781 -0.014158695936203 -0.05108628049492836 0.006693511269986629 -0.05827950686216354 -0.1625531762838364 -0.1269587427377701 0.06850771605968475 0.1116491258144379 0.0351388156414032 0.01021205168217421 0.03819199278950691 0.05330714955925941 -0.03113116137683392 -0.07104987651109695 -0.02293801307678223 0.02586646378040314 -0.01636914350092411 0.0161778200417757 0.0389726534485817 0.01640538312494755 -0.02008161321282387 -0.009644502773880959 -0.00798176322132349 -0.02965407818555832 -0.03638695925474167 0.03265206515789032 0.1631657630205154 0.1494691520929337 0.04936577379703522 -0.02143481001257896 -0.002229057718068361 -0.09263584017753601 -0.2967077195644379 -0.3247587084770203 0.008889753371477127 0.2118610590696335 0.1086806207895279 0.06258054077625275 0.166215106844902 0.1188575625419617 -0.3155269622802734 -0.6483961939811707 -0.3892169594764709 -0.1151525378227234 -0.008547478355467319 0.07028128951787949 0.3789198696613312 0.6840682625770569 0.4150873422622681 -0.003464488545432687 -0.1319608688354492 -0.02234981022775173 -0.1336389780044556 -0.2497002929449081 -0.09456129372119904 0.2311388552188873 0.272579699754715 0.08048646152019501 -0.0114245992153883 0.01889384724199772 -0.00355336582288146 -0.1328062564134598 -0.1769852936267853 -0.06187394261360168 0.02195231430232525 -0.002973177004605532 0.02277061901986599 0.01171301119029522 0.01077847182750702 -0.03893235325813293 -0.02330937795341015 0.008940634317696095 -0.0210418812930584 -0.02158364653587341 0.02591076120734215 0.1519980728626251 0.104356974363327 -0.009798046201467514 -0.0678458958864212 -0.0001161535546998493 -0.07185588032007217 -0.2179842442274094 -0.1700931638479233 0.09942673146724701 0.2019270211458206 0.07351928204298019 0.05156987532973289 0.1088124290108681 0.05844997242093086 -0.2320860028266907 -0.4564580917358398 -0.2259629815816879 -0.03918075561523438 -0.01667490229010582 0.02972478792071342 0.2394594252109528 0.4785350859165192 0.279731422662735 -0.01076281443238258 -0.08955021947622299 -0.02419176138937473 -0.09272275120019913 -0.2156811654567719 -0.1218886822462082 0.1170230060815811 0.1629740595817566 0.06953124701976776 0.008292484097182751 0.0566425547003746 0.03743849322199821 -0.03914375230669975 -0.1169616132974625 -0.05466027930378914 0.0403791218996048 -0.02064885385334492 0.01462529227137566 -0.0271289274096489 -0.0182919055223465 -0.008642573840916157 -0.006384618580341339 0.02238390035927296 -0.007703614421188831 0.04677998647093773 -0.0001877226895885542 0.02605894021689892 0.02229978516697884 0.01480857562273741 0.03443078696727753 0.004427290521562099 0.05134905874729156 0.02507895044982433 0.03264819458127022 0.01618391089141369 -0.004181998781859875 0.05435394123196602 0.01041483040899038 0.05127017572522163 0.02360592968761921 0.002118402626365423 -0.01700994744896889 0.00224595027975738 0.03231442347168922 -0.005681345239281654 0.02480414137244225 -0.01135850511491299 -0.02999969199299812 -0.08028005063533783 -0.06829968839883804 -0.0216812752187252 0.001098252716474235 -0.002014393452554941 -0.005268595647066832 -0.02652007713913918 -0.07660076022148132 -0.05751784890890121 -0.001117845182307065 0.02737434394657612 0.03170948475599289 0.005400387570261955 -0.02411813102662563 -0.04175323620438576 -0.03797299042344093 -0.01138238329440355 -0.09774664789438248 -0.04171568527817726 -0.06594189256429672 -0.02507995627820492 -0.03915901482105255 -0.06764255464076996 -0.05591152980923653 -0.01123920734971762 0.06631802022457123 0.04893301799893379 0.1058602407574654 0.08569733053445816 0.05084734037518501 0.04754707589745522 0.01027101930230856 0.09993221610784531 0.107394851744175 0.1575113981962204 0.1316311806440353 0.08435443043708801 0.1219698488712311 0.04575616121292114 0.157382532954216 0.1574621796607971 0.1898869574069977 0.1522262394428253 0.1439530998468399 0.1685153543949127 0.01525007095187902 0.1245937645435333 0.09412817656993866 0.1109906286001205 0.05575037747621536 0.05223143845796585 0.1029961705207825 -0.02552061155438423 0.04678454622626305 0.04412990063428879 0.06062870100140572 0.01468406338244677 0.01265954226255417 0.06133377179503441 -0.0403774082660675 0.01486566197127104 0.001946100615896285 0.01649788208305836 0.003634286113083363 -0.0008340072236023843 0.01560106035321951 -0.05888793244957924 -0.02443999797105789 -0.03707375377416611 -0.03678944334387779 -0.05491804704070091 -0.06652382016181946 -0.03348318114876747 -0.02582945488393307 0.04667886719107628 0.03519474714994431 0.05207903310656548 0.04147772118449211 0.0154671547934413 0.02577505633234978 -0.005292779300361872 0.0728786289691925 0.07153919339179993 0.08099580556154251 0.07011865824460983 0.04441353678703308 0.06705769151449203 0.02253466658294201 0.09473784267902374 0.09010129421949387 0.0895964503288269 0.07122377306222916 0.08836424350738525 0.08121003955602646 0.01059459242969751 0.09250952303409576 0.04946579411625862 0.02667917497456074 -0.01988404802978039 -0.00728512741625309 0.009500910528004169 -0.01911347545683384 0.02739434130489826 0.01707790233194828 -0.02480975911021233 -0.06955932825803757 -0.04748454689979553 -0.005103325936943293 -0.03812545910477638 0.0005353138549253345 -0.02362963743507862 -0.06819836795330048 -0.07557709515094757 -0.04346984252333641 -0.0232036467641592 -0.00565647054463625 0.02663422003388405 0.01136133354157209 0.008386501111090183 0.01192689780145884 -0.005653244908899069 -0.02606050297617912 0.0144875654950738 0.01498858071863651 -0.03981368988752365 -0.04409773275256157 0.01194269023835659 0.01440886501222849 -0.006311585195362568 -0.02075791917741299 -0.02684322372078896 -0.06485354900360107 0.04097659140825272 0.1341104358434677 0.002159607829526067 -0.04405158013105392 0.02970971167087555 0.02711367793381214 0.0610976330935955 0.2371214628219604 0.09229057282209396 -0.1438731551170349 -0.06576327979564667 4.901747161056846e-05 0.00540984608232975 0.03537346050143242 -0.008054966107010841 -0.2584038376808167 -0.1839318871498108 0.02109118364751339 -0.01627818122506142 -0.02011851966381073 -0.03383774682879448 -0.1138811782002449 -0.1495830416679382 0.03555256500840187 0.1157658845186234 -0.01456820499151945 -0.01590023376047611 -0.01093795616179705 -0.009416029788553715 0.03901248425245285 0.1134809851646423 0.05387840047478676 -0.03022590093314648 -0.03050189651548862 -0.06045828014612198 -0.01666525937616825 0.02425746433436871 0.02427776344120502 -0.01499794516712427 -0.03826059773564339 -0.04623278975486755 -0.07583869248628616 0.01055091619491577 0.1187184453010559 0.07618814706802368 -0.001010345993563533 -0.07839937508106232 -0.05246212333440781 -0.0108875147998333 0.2645951807498932 0.3458658754825592 0.04120973125100136 -0.09324818849563599 0.03624720126390457 0.1047438085079193 0.2641671597957611 0.5393454432487488 0.1622592955827713 -0.3045316338539124 -0.2214746028184891 0.04380280151963234 0.08975492417812347 0.1701939404010773 0.04828584939241409 -0.489325076341629 -0.4715048968791962 -0.08668998628854752 0.02890796214342117 0.007664943113923073 -0.03823628649115562 -0.2313746809959412 -0.3805029094219208 -0.05729112029075623 0.1581270396709442 -0.0179433710873127 -0.03842133656144142 -0.05614204704761505 -0.08904623240232468 -0.03214645013213158 0.1464673727750778 0.1238976418972015 -0.01740174740552902 -0.008564972318708897 -0.0445740632712841 -0.02471816726028919 0.01320086419582367 0.02190397679805756 0.002345887245610356 -0.01949076168239117 -0.02455515414476395 -0.06168770045042038 -0.01308690942823887 0.0742560550570488 0.06235634908080101 0.007280945777893066 -0.06115657463669777 -0.03868930041790009 -0.05466228723526001 0.1518355756998062 0.2621155381202698 0.0543082021176815 -0.05085651949048042 0.01255175843834877 0.06433750689029694 0.1468272060155869 0.391309916973114 0.1558738499879837 -0.1914448589086533 -0.1193638816475868 0.04679708555340767 0.07385147362947464 0.1038952693343163 0.04146906360983849 -0.3408618867397308 -0.2931367754936218 -0.01442013494670391 0.05304982885718346 0.03536604344844818 -0.02676326408982277 -0.1395687907934189 -0.2527039051055908 -0.02461361326277256 0.111844077706337 0.006130344700068235 -0.02047871239483356 -0.05559244751930237 -0.06579101085662842 -0.02028360217809677 0.09403931349515915 0.0452224388718605 -0.01334927044808865 -0.02199597097933292 -0.05879145488142967 0.018946323543787 0.04371582344174385 0.001686639501713216 0.002277978463098407 -0.004400393925607204 -0.006783951073884964 -0.08543106913566589 0.01104083657264709 0.07821095734834671 0.01377732027322054 0.0103042870759964 -0.004757627379149199 -0.0004355210112407804 -0.09739977121353149 -0.03898584842681885 0.09393037855625153 0.0003512312250677496 -0.03028191439807415 0.01733683049678802 0.02489654719829559 -0.1205666065216064 -0.1542167961597443 0.1199068129062653 0.101663626730442 0.009767994284629822 0.01573080196976662 0.08118645846843719 -0.03020916879177094 -0.2974664568901062 -0.06257864832878113 0.1077243238687515 0.007035864051431417 0.01194967143237591 0.08252605050802231 0.1419245451688766 -0.1561865359544754 -0.1867808103561401 0.02031491696834564 0.04491088911890984 -0.01043812930583954 0.03549325466156006 0.1180419996380806 0.04929500818252563 -0.09643100202083588 -0.1060856282711029 0.005210342817008495 -0.02048714458942413 -0.0287420991808176 -0.03825574368238449 0.0804048478603363 0.1214165464043617 -0.009566526859998703 -0.03047247603535652 -0.01065876521170139 -0.03274432197213173 -0.1351656764745712 0.01859365031123161 0.1905097961425781 0.05007029324769974 -0.007745437789708376 -0.002116678049787879 -0.03393631428480148 -0.2003184407949448 -0.1099208518862724 0.2303689271211624 0.1214317455887794 -0.02542157471179962 0.04290879517793655 0.0204087570309639 -0.2591031789779663 -0.3626852333545685 0.215690404176712 0.3123793601989746 0.09216826409101486 0.04866539314389229 0.1291010081768036 -0.1226678714156151 -0.6242198944091797 -0.1552224159240723 0.258808434009552 0.1337557584047318 0.05700027570128441 0.1796154379844666 0.2040673941373825 -0.3557221293449402 -0.3813998401165009 0.02358652092516422 0.133473813533783 0.009481346234679222 0.09433405846357346 0.2300215810537338 0.003571879351511598 -0.2228122055530548 -0.165706679224968 0.02729818411171436 -0.006115151103585958 -0.02639557048678398 -0.03429349884390831 0.04584545642137527 0.06497322767972946 -0.03259351849555969 -0.03664369881153107 0.01296876650303602 -0.01860558986663818 -0.08205478638410568 0.0292073767632246 0.1128200218081474 -0.00403727637603879 -0.05267280340194702 0.006763947196304798 -0.003840881399810314 -0.0810144767165184 -0.02772118151187897 0.1731997728347778 0.03328930586576462 -0.09603210538625717 0.009244870394468307 0.02141272276639938 -0.1131027191877365 -0.1611906737089157 0.2263527065515518 0.2040280401706696 -0.01449274085462093 -0.03179015964269638 0.05827769637107849 -0.03700636327266693 -0.3796837031841278 -0.03057598136365414 0.203388124704361 0.03850787132978439 -0.02419026382267475 0.06000614166259766 0.1553926318883896 -0.2243900448083878 -0.208918109536171 0.07834648340940475 0.1067775413393974 -0.04115478321909904 -0.004445483442395926 0.1373920142650604 0.01423318590968847 -0.1295695453882217 -0.1072010323405266 0.03115206584334373 -0.07256436347961426 -0.01616353914141655 -0.0363558828830719 -0.01722074672579765 -0.01207646541297436 -0.004799614660441875 -0.01413463801145554 -0.03863903507590294 0.03156907483935356 0.0006807504687458277 0.04186153784394264 0.04713932052254677 0.0297330878674984 0.03626778349280357 -0.02917721308767796 0.01931613683700562 0.01552731543779373 0.05296248570084572 0.07300733029842377 0.05295194685459137 0.07424964755773544 -0.008788568899035454 0.05148357897996902 0.0523543693125248 0.09773251414299011 0.1122488453984261 0.1024846211075783 0.1402756720781326 -0.00642903009429574 0.05743877217173576 0.06579872220754623 0.09806456416845322 0.09070482105016708 0.07612668722867966 0.1275471597909927 -0.003688664175570011 0.04855366423726082 0.05538726598024368 0.08600744605064392 0.07931480556726456 0.07423128932714462 0.1044002920389175 -0.01703326404094696 0.0275716744363308 0.04772555083036423 0.08663130551576614 0.1045714095234871 0.08744596689939499 0.1065701395273209 0.04774602875113487 0.03532335534691811 0.05385749414563179 0.02829158678650856 0.01917353272438049 0.02898036874830723 0.03960121423006058 0.01991280913352966 0.009400068782269955 0.03139648213982582 0.008853558450937271 0.00583481602370739 -0.02747612074017525 -0.02529464848339558 0.03414148837327957 0.01271297223865986 0.03385712578892708 -0.02031725086271763 -0.0300420206040144 -0.06224803999066353 -0.04024346917867661 0.0027367128059268 -0.01829631999135017 -0.0293210931122303 -0.1135666593909264 -0.1513197720050812 -0.1597348749637604 -0.1302114427089691 0.01641239784657955 -0.02379065379500389 -0.061936154961586 -0.1809222102165222 -0.240818589925766 -0.2358731925487518 -0.1840361058712006 0.01456666737794876 -0.05083003267645836 -0.09400826692581177 -0.2147702723741531 -0.2597293555736542 -0.2441669553518295 -0.197136178612709 0.01106057222932577 -0.05371097847819328 -0.08712469786405563 -0.1902661472558975 -0.2129856199026108 -0.2014406770467758 -0.1591316312551498 -0.03998078405857086 -0.02541744709014893 -0.03733688220381737 -0.02744140848517418 -0.06028955429792404 -0.04358216747641563 -0.02802272699773312 -0.003963412251323462 0.02137390151619911 0.001094293314963579 0.02521438524127007 0.0177080649882555 0.004559492226690054 0.03942468017339706 0.007933623157441616 0.02357702143490314 0.01355308666825294 0.04105480387806892 0.0584028996527195 0.03463733941316605 0.06167977675795555 0.01209706719964743 0.06526602059602737 0.06554937362670898 0.1040143817663193 0.1164950802922249 0.1250437647104263 0.1195578649640083 -0.0013229139149189 0.05239612236618996 0.06202538311481476 0.1346721947193146 0.1574367582798004 0.1421347707509995 0.1111796870827675 -0.005668266676366329 0.02689053677022457 0.05349469557404518 0.1237779259681702 0.1360165029764175 0.1399264484643936 0.09767529368400574 -0.01179568655788898 0.04468390718102455 0.05906809866428375 0.09439580887556076 0.0858670249581337 0.09493339061737061 0.09261796623468399 -0.0473598912358284 0.02147713117301464 0.001989669632166624 0.01911965757608414 0.000154493740410544 0.007989084348082542 0.01522339973598719 0.003348879283294082 0.06691178679466248 0.04373960942029953 0.04393811896443367 -0.02250559069216251 -0.04122168198227882 -0.06970324367284775 0.02556313574314117 0.1030143871903419 0.04923110082745552 0.02535627037286758 -0.0451795719563961 -0.05969392880797386 -0.0737566351890564 0.03486168384552002 0.1050703451037407 0.05541839450597763 0.0173826664686203 -0.05800320580601692 -0.072447769343853 -0.07969126105308533 0.04553207755088806 0.109342522919178 0.0592680424451828 0.01092017721384764 -0.05600262433290482 -0.06439457088708878 -0.08197998255491257 0.05998457595705986 0.08858243376016617 0.04223828390240669 0.009469854645431042 -0.06284291297197342 -0.09052689373493195 -0.09785706549882889 0.07242877036333084 0.09046190232038498 0.03964152932167053 -9.06212972040521e-06 -0.07176604121923447 -0.09844560176134109 -0.06152554601430893 -0.01110925059765577 0.07623493671417236 0.03778795897960663 0.04836702719330788 -0.03572050482034683 -0.0576024055480957 -0.06523600965738297 0.0661998987197876 0.1466014087200165 0.1032856181263924 0.0889960303902626 -0.03985139727592468 -0.1076425164937973 -0.175935834646225 0.104652039706707 0.1933361440896988 0.1295371204614639 0.07861475646495819 -0.07352562248706818 -0.1561896353960037 -0.2148838937282562 0.1281706690788269 0.2086578160524368 0.1227505058050156 0.05760757252573967 -0.1092641353607178 -0.1995200663805008 -0.2373718023300171 0.1509333401918411 0.2186116576194763 0.1389185190200806 0.04846120998263359 -0.1215413883328438 -0.1961885392665863 -0.2341133207082748 0.1515200883150101 0.1979700922966003 0.118290551006794 0.04545349255204201 -0.1166165471076965 -0.2000399827957153 -0.2243374586105347 0.1352613121271133 0.1658141165971756 0.09267660975456238 0.03227344527840614 -0.1004228815436363 -0.1663122624158859 -0.1733136177062988 -0.06847880035638809 0.02846477366983891 0.004697684198617935 0.03991268575191498 -0.0103552071377635 -0.01956037618219852 -0.06509478390216827 0.01645200699567795 0.1081358790397644 0.07573578506708145 0.08770084381103516 -0.00312215811572969 -0.043984305113554 -0.1247934848070145 0.03958458453416824 0.139584481716156 0.08801335096359253 0.06599023938179016 -0.03551124408841133 -0.08205766230821609 -0.1486843973398209 0.05998159572482109 0.1431566178798676 0.06613370031118393 0.04109293594956398 -0.07026132196187973 -0.1161638274788857 -0.1660035699605942 0.08271656930446625 0.1545623689889908 0.077718585729599 0.03706366196274757 -0.07226265221834183 -0.111258402466774 -0.1761261224746704 0.08700492233037949 0.1388737708330154 0.06978222727775574 0.04049035906791687 -0.06931357830762863 -0.1223650351166725 -0.1696819365024567 0.08435096591711044 0.1358583867549896 0.06438479572534561 0.02999644726514816 -0.0683576837182045 -0.1226367652416229 -0.1484377533197403 0.02042213454842567 -0.02076489105820656 0.0407802052795887 -0.05285774543881416 -0.08643674850463867 0.05553650856018066 0.2230497300624847 -0.009812488220632076 -0.02221960574388504 0.1251776665449142 0.04004218801856041 -0.1634747684001923 -0.2635821402072906 -0.1232275664806366 -0.0168991181999445 0.01830719783902168 0.3003049790859222 0.330636590719223 0.03646504506468773 -0.3694316148757935 -0.4134456515312195 -0.1457585692405701 -0.08734532445669174 0.3468252718448639 0.5603630542755127 0.3528755605220795 -0.1331689208745956 -0.38270503282547 -0.2192021161317825 -0.297767162322998 0.09523250162601471 0.4171750843524933 0.4066053330898285 0.08704191446304321 -0.1959774494171143 -0.09739827364683151 -0.3582042157649994 -0.1769894510507584 0.06260302662849426 0.199609786272049 0.1332812756299973 -0.02337220683693886 0.1794933378696442 -0.08960618078708649 -0.1242889538407326 -0.1195621639490128 -0.01276206877082586 0.07240542769432068 0.02791512385010719 -0.007099614944308996 0.01888130232691765 0.02440680935978889 0.02966355159878731 -0.01059854961931705 -0.07293467968702316 -0.09715843200683594 -0.0008435879135504365 0.03497490286827087 0.03271884471178055 0.04014230519533157 0.02224739827215672 -0.02101968415081501 -0.06087919324636459 -0.01444203220307827 0.006921198219060898 0.003114529652521014 0.009080418385565281 0.03473369404673576 0.03573647141456604 -0.01731439307332039 -0.02075209841132164 -0.01576017215847969 -0.009267542511224747 -0.001522184815257788 0.02281733229756355 0.05178822576999664 0.001590088242664933 -0.008999905548989773 -0.005037490278482437 -0.004508440848439932 -0.01124896761029959 0.01410725526511669 0.04145710915327072 0.01988930813968182 -0.01916159130632877 -0.01305327005684376 0.001591322477906942 -0.009420997463166714 0.02014367468655109 0.0390816330909729 0.03082758374512196 -0.04283493384718895 -0.04562964290380478 -0.03263972327113152 -0.0002918469544965774 0.02047782205045223 0.004747630096971989 0.001221570884808898 -0.01096884440630674 0.005857438780367374 -0.07157924771308899 0.02983652614057064 0.09388260543346405 0.01713590510189533 -0.1309061497449875 0.008988918736577034 -0.009475497528910637 -0.162682831287384 -0.07089175283908844 0.147267147898674 0.2919984459877014 0.1940372735261917 0.03984629735350609 -0.03091130964457989 -0.3134735524654388 -0.3414900302886963 -0.07710317522287369 0.3262773156166077 0.4247762560844421 0.1718875616788864 0.1090823858976364 -0.3406701982021332 -0.5526405572891235 -0.3731589019298553 0.09036394208669662 0.3844283521175385 0.2254525572061539 0.3050717413425446 -0.09679833799600601 -0.4112516045570374 -0.4231439232826233 -0.1383111178874969 0.1769676208496094 0.1204162612557411 0.3634928464889526 0.1891319453716278 -0.05854140594601631 -0.2102680057287216 -0.17746801674366 -7.50859544496052e-05 -0.1266272068023682 0.1294161528348923 0.157381996512413 0.1254711300134659 -0.006676207296550274 -0.07983721792697906 -0.02626178599894047 0.06503096967935562 -0.02879928983747959 -0.02045095711946487 -0.03463611751794815 0.006038476713001728 0.008358331397175789 0.003844586899504066 -0.0211635772138834 -0.1065448522567749 -0.07297685742378235 -0.04831778258085251 0.02583371102809906 0.05190388113260269 0.07235012948513031 -0.02866802178323269 -0.09379982948303223 -0.08918111771345139 -0.04011226445436478 0.02945275977253914 0.08552981168031693 0.1315073370933533 -0.005400778260082006 -0.0839613750576973 -0.07626288384199142 -0.03192639723420143 0.04903088510036469 0.07446097582578659 0.1265515983104706 -0.0272736418992281 -0.1064705699682236 -0.08104189485311508 -0.01019993890076876 0.0607689842581749 0.04892409592866898 0.1081698313355446 -0.003312756307423115 -0.100864551961422 -0.06975039839744568 -0.02549711428582668 0.03783659264445305 0.05511339381337166 0.09796763956546783 0.03756783902645111 -0.0752231776714325 -0.06354279071092606 -0.02487410791218281 0.02183165587484837 0.05450617522001266 0.07560969889163971 -0.001752592739649117 -0.08007138222455978 -0.04712703824043274 -0.02119527570903301 0.07004760205745697 0.09090342372655869 0.08692697435617447 -0.1158367171883583 -0.1920509785413742 -0.1312842816114426 -0.05163633450865746 0.09134608507156372 0.1437921077013016 0.1701442897319794 -0.1295376867055893 -0.2092938274145126 -0.1547705382108688 -0.03006470762193203 0.1073530986905098 0.1895312070846558 0.2420219033956528 -0.1161152347922325 -0.2196352332830429 -0.1769011914730072 -0.0360734835267067 0.1282660067081451 0.1947612464427948 0.2568223774433136 -0.1337808966636658 -0.230683907866478 -0.181128203868866 -0.02629599161446095 0.1343671828508377 0.1719792485237122 0.246612548828125 -0.1059095039963722 -0.2224983423948288 -0.1649496555328369 -0.0454823412001133 0.1048904359340668 0.1666071563959122 0.2186685502529144 -0.06240198388695717 -0.1845730841159821 -0.1380303949117661 -0.03096591681241989 0.09361281245946884 0.1430400609970093 0.1800534576177597 -0.0008870874880813062 -0.04138288274407387 -0.006180723197758198 0.005707827862352133 0.04397526383399963 0.01726883091032505 -0.01690792664885521 -0.06530718505382538 -0.1015772596001625 -0.06375646591186523 -0.01047557406127453 0.0753856897354126 0.08264690637588501 0.07747641950845718 -0.08107423782348633 -0.111055500805378 -0.08535756915807724 -0.004069014918059111 0.08780673891305923 0.1155824512243271 0.1416359543800354 -0.08544525504112244 -0.1279506236314774 -0.1088664829730988 -0.0226697064936161 0.08267398178577423 0.1159399673342705 0.1634870171546936 -0.1123392358422279 -0.1464053839445114 -0.1006021499633789 0.002586595015600324 0.1006990894675255 0.106942817568779 0.1613876819610596 -0.09175028651952744 -0.1532996147871017 -0.09959015250205994 -0.0170199703425169 0.08580558747053146 0.1103510037064552 0.1432714760303497 -0.0582008957862854 -0.1376688480377197 -0.08809266984462738 -0.01229665521532297 0.06832247227430344 0.09052151441574097 0.1121693029999733 -0.001413588295690715 -0.007357179187238216 -0.04263979196548462 0.002596272155642509 -0.02026350609958172 0.0675932914018631 -0.01718691550195217 0.004157782066613436 0.005035303998738527 -0.02399266511201859 -0.04724429175257683 0.04615382850170135 0.1100346446037292 -0.0401245653629303 0.004094087518751621 0.02837809175252914 -0.02388275973498821 -0.1884517073631287 0.1698213964700699 0.09034919738769531 -0.09037906676530838 -0.003199762664735317 0.02431177720427513 0.01303303148597479 -0.3021059930324554 0.312888890504837 0.04662933200597763 -0.1187963113188744 0.0164515059441328 -0.005419581662863493 0.03965114429593086 -0.2674321532249451 0.3238813579082489 0.01216247398406267 -0.08857579529285431 0.00946425087749958 -0.004292082972824574 0.01658941805362701 -0.1664573401212692 0.1763811260461807 0.004842236638069153 -0.06993255764245987 -0.009418548084795475 0.01094055641442537 -0.02145723253488541 -0.0482015535235405 0.08836233615875244 0.03965690732002258 -0.01343669835478067 -0.001244211685843766 0.01707378402352333 -0.05121626332402229 -0.01759025454521179 -0.006295219529420137 0.133753314614296 -0.02859978191554546 0.005326685030013323 0.05709771811962128 -0.07262049615383148 -0.1491243988275528 0.1124343276023865 0.1978949755430222 -0.1398917436599731 0.007262785919010639 0.1126861497759819 -0.08629074692726135 -0.3705142736434937 0.3632180094718933 0.2360580563545227 -0.2283772230148315 1.653706203796901e-05 0.09702219814062119 -0.0893416553735733 -0.5532574057579041 0.5842153429985046 0.2143087834119797 -0.2837496101856232 0.02056542225182056 0.05813376232981682 -0.05389850214123726 -0.4840044677257538 0.5750722289085388 0.1541449427604675 -0.2285148352384567 0.008169302716851234 0.02895822189748287 -0.0345347672700882 -0.2926823794841766 0.3185706734657288 0.101333923637867 -0.1610205322504044 -0.009715631604194641 0.02836866676807404 -0.04758287593722343 -0.108298271894455 0.1409771889448166 0.09893558919429779 -0.05617505684494972 -0.003653161926195025 -0.01860413327813148 -0.03292009606957436 0.03845655173063278 -0.004423058591783047 0.1097321957349777 -0.04775309935212135 -0.006342298816889524 0.01802337355911732 -0.03551534935832024 -0.06874529272317886 0.0795288160443306 0.132966473698616 -0.1231047436594963 -0.00990922749042511 0.05089590325951576 -0.01802054420113564 -0.2328113913536072 0.2528702318668365 0.1398345232009888 -0.1819695830345154 -0.01503735035657883 0.04127458855509758 -0.001437963685020804 -0.3676985204219818 0.405877023935318 0.09905043244361877 -0.1989505738019943 0.02048159018158913 0.01813875883817673 0.03182892501354218 -0.3351027071475983 0.3926686346530914 0.04247609153389931 -0.1597824394702911 0.009424543008208275 -0.0008632703684270382 0.01330991927534342 -0.2090672254562378 0.2160893529653549 0.04213571920990944 -0.1117491722106934 0.00394108984619379 0.0005176494596526027 -0.03380747511982918 -0.07063912600278854 0.1007072776556015 0.07997231185436249 -0.05100324377417564 0.006768502295017242 -0.01011072285473347 -0.002083658007904887 0.008842509239912033 0.006612441968172789 0.01355606783181429 0.00554582430049777 -0.0007386627257801592 -0.01413314137607813 -0.02044782228767872 -0.00980746652930975 -0.02087298408150673 -0.02165196277201176 -0.01672757603228092 0.02624332904815674 0.01352317072451115 -0.01463876012712717 -0.02138805389404297 -0.01092842314392328 -0.001404659706167877 0.02859587036073208 0.004281885456293821 0.0624760203063488 0.1212587282061577 0.192769929766655 0.1630645245313644 0.07037673145532608 0.003651457140222192 -0.02846352197229862 -0.06846261024475098 -0.1378693282604218 -0.1670532077550888 -0.1093013063073158 0.004760699812322855 0.009848481044173241 -0.03017773106694221 -0.05467494204640388 -0.06674503535032272 -0.0936928316950798 -0.1434791535139084 -0.1399729996919632 -0.09719299525022507 0.01869227364659309 0.04425522312521935 0.05690614879131317 0.1055377945303917 0.1146754920482635 0.08656729012727737 0.004525323864072561 0.01561958156526089 -0.02377684228122234 -0.01726127043366432 -0.01915685273706913 -0.008206737227737904 0.005994831677526236 0.002931280760094523 0.00567706860601902 -0.01665188372135162 -0.05233870446681976 -0.07009930908679962 -0.07948285341262817 -0.06541404128074646 -0.03065997920930386 0.06395689398050308 0.0863204300403595 0.09142512828111649 0.09546700119972229 0.07317762821912766 0.05371221154928207 0.07747593522071838 0.06004374846816063 0.1795701086521149 0.3595247566699982 0.5134140849113464 0.4715069830417633 0.2901901304721832 0.1328060477972031 -0.09901898354291916 -0.2048613578081131 -0.3348733186721802 -0.3943422436714172 -0.2549050450325012 -0.03328333050012589 0.01688005216419697 -0.08578140288591385 -0.1660207659006119 -0.2531638145446777 -0.360374242067337 -0.414227694272995 -0.3405808508396149 -0.2046287059783936 0.07711779326200485 0.130032479763031 0.1824626922607422 0.2223377078771591 0.2127940058708191 0.1400656253099442 0.03339084610342979 0.01196155324578285 -0.01262090634554625 -0.01201958116143942 -0.01693454012274742 -0.007358184549957514 -0.01047524902969599 -0.00358776724897325 -0.01973343454301357 -0.02054186910390854 -0.04657694697380066 -0.05671094357967377 -0.08511827886104584 -0.07330985367298126 -0.04039494693279266 0.03572050109505653 0.05378340557217598 0.04032028466463089 0.02546240016818047 0.007352650165557861 0.02100303955376148 0.07539729028940201 0.02090567909181118 0.1351026743650436 0.2690359055995941 0.3868623077869415 0.333586186170578 0.2023740708827972 0.1009060814976692 -0.08315952122211456 -0.1369119137525558 -0.223213329911232 -0.2626130282878876 -0.1756611913442612 0.001364549505524337 0.03723251447081566 -0.06745906174182892 -0.1040168404579163 -0.1552465856075287 -0.2400748878717422 -0.2998386919498444 -0.2421983927488327 -0.1589888483285904 0.03517653420567513 0.09886753559112549 0.1313066482543945 0.1581534743309021 0.1423399150371552 0.1075630635023117 0.003020635573193431 -0.004527045413851738 0.01840140670537949 0.006085890345275402 0.0286989975720644 0.02860110811889172 -0.002037854166701436 -0.02586279436945915 0.004477520473301411 -0.002128975931555033 -0.01437139697372913 0.02180977538228035 0.01569512486457825 0.01195592526346445 0.002133369212970138 0.001052004401572049 -0.004528461024165154 -0.0004177430528216064 0.02037463709712029 0.01974986493587494 0.01106533873826265 -0.01425432413816452 -0.005692018195986748 0.0002165613987017423 -0.02644847519695759 0.04085724800825119 0.09676681458950043 0.07252739369869232 0.009687330573797226 0.005290377419441938 -0.001151658827438951 -0.01789973489940166 0.1017963662743568 0.1962735205888748 0.1665585488080978 0.04302516952157021 -0.01131215505301952 -0.02516638301312923 -0.030012222006917 0.09673967212438583 0.1659615188837051 0.1162260174751282 -0.002328474540263414 -0.009646972641348839 -0.003769333939999342 0.009413231164216995 0.06049083918333054 0.05328190699219704 0.01932260766625404 -0.01757809519767761 0.0232020728290081 0.01126497611403465 0.00257961405441165 0.0002886045840568841 0.01927052810788155 -0.02412563934922218 -0.02815929986536503 0.01690507680177689 0.008503343909978867 0.002355910837650299 0.007737523410469294 0.02512860111892223 -0.004806661978363991 -0.00788533128798008 0.003450553398579359 -0.002029858762398362 0.01867242716252804 0.01806804351508617 0.0342014767229557 0.004583805799484253 -0.02114846557378769 -0.015109833329916 -0.003516178345307708 -0.006616660859435797 0.05451600626111031 0.1187714040279388 0.07055269926786423 -0.0111978966742754 -0.007520108018070459 0.004242006223648787 0.01538732647895813 0.1238755732774734 0.2232912480831146 0.1653799563646317 0.04441329836845398 -0.01771693862974644 -0.007109439000487328 0.01538227405399084 0.1317108869552612 0.2082687318325043 0.1431434154510498 0.01205300725996494 -0.008850670419633389 0.003323189681395888 0.03449888899922371 0.08086089789867401 0.09555961936712265 0.04124835506081581 -0.008326595649123192 0.02482901327311993 -0.007426917552947998 -0.01210547238588333 -0.01223858632147312 0.02620502933859825 -0.001242146245203912 -0.01068967767059803 0.006281191948801279 -0.01763524487614632 -0.02210241742432117 -0.01756070740520954 0.01127135846763849 -0.01039096154272556 -0.02735381759703159 -1.177745048153156e-06 -0.03449053317308426 -0.007483347319066525 -0.007958810776472092 0.02227997593581676 -0.001983782975003123 -0.03602709248661995 -0.01523285731673241 -0.03023385070264339 -0.0146015752106905 0.04457399621605873 0.1106905937194824 0.07532075792551041 0.003330643055960536 -0.00776092242449522 -0.02319116704165936 -0.002396006369963288 0.09903919696807861 0.1799881607294083 0.140195220708847 0.03107080049812794 -0.01450928580015898 -0.03957205265760422 -0.01331961061805487 0.08722811192274094 0.1559358388185501 0.102404959499836 -0.01700333133339882 -0.002883348613977432 -0.01989912614226341 0.004865533672273159 0.05142221227288246 0.07078995555639267 0.02336485870182514 -0.03694973140954971 0.007892074063420296 0.00712496554479003 -0.0006195059395395219 -0.004588877316564322 0.0008560516871511936 0.005902480334043503 0.0073684211820364 0.003196287900209427 -0.001813888200558722 -0.00199989858083427 -0.002725687576457858 0.004992255941033363 0.0137550188228488 0.01111990585923195 -0.002456257119774818 -0.002859375439584255 -0.0008581566507928073 -0.000189813828910701 0.01162902358919382 0.01874330453574657 0.01660876534879208 0.000716115057002753 -0.004018946550786495 0.0007836550357751548 -0.001740076229907572 0.01340610347688198 0.02802721969783306 0.02173986099660397 -0.01083703432232141 -0.01634552143514156 -0.008323252201080322 -0.01073111314326525 -0.005112557206302881 0.008779675699770451 0.01113997213542461 -0.01185477431863546 -0.01756538636982441 -0.01236091926693916 -0.0128201125189662 -0.008334271609783173 -0.005743293091654778 -0.004774513654410839 -0.00552258500829339 -0.01118366792798042 -0.01117931585758924 -0.01512190420180559 -0.008912540972232819 -0.005790879484266043 -0.002209272002801299 0.01195212360471487 0.009814874269068241 0.0012529322411865 -0.001735446741804481 0.003662050701677799 0.006098861806094646 0.007114617619663477 0.005000847391784191 -0.0004929954884573817 -0.003631588770076632 -0.005779888946563005 0.002240360016003251 0.01026270445436239 0.009542998857796192 -0.002647297456860542 -0.004147507715970278 -0.003611370921134949 -0.004582022316753864 0.004604976624250412 0.01375558227300644 0.01584826782345772 0.0007065139943733811 -0.005688243079930544 -0.001989713404327631 -0.00603357283398509 0.006626073271036148 0.0239405632019043 0.01857185736298561 -0.009955205954611301 -0.01598713546991348 -0.01020642183721066 -0.01315839681774378 -0.008287877775728703 0.005139308515936136 0.0084836445748806 -0.01122800447046757 -0.01782904379069805 -0.0146276568993926 -0.01381708029657602 -0.01037680357694626 -0.007395690772682428 -0.008740482851862907 -0.00513848103582859 -0.0116695137694478 -0.01152936834841967 -0.01467525586485863 -0.008820885792374611 -0.007844665087759495 -0.006411965470761061 -0.003848503110930324 -0.001297565875574946 -0.00824660062789917 -0.01026094704866409 -0.00498478626832366 -0.005099798552691936 -0.008373026736080647 -0.00804352480918169 -0.01180656626820564 -0.01287325564771891 -0.01521793007850647 -0.009103845804929733 -0.004054823890328407 -0.008201884105801582 -0.01031590439379215 -0.009691724553704262 -0.008663255721330643 -0.01168788410723209 -0.006387683562934399 -0.001113156205974519 -0.002774761058390141 -0.005151159130036831 -0.008598535321652889 -0.005018633790314198 -0.01240412332117558 -0.003557144664227962 0.007780657615512609 -0.0009700394584797323 -0.01268847938627005 -0.01423357706516981 -0.01008444093167782 -0.01598037593066692 -0.01433609239757061 -0.005368076730519533 -0.006225290708243847 -0.0145516861230135 -0.01525443233549595 -0.01262862794101238 -0.01509194914251566 -0.01342436205595732 -0.01556085515767336 -0.01957186125218868 -0.009256582707166672 -0.01232075225561857 -0.01255853660404682 -0.01753075234591961 -0.01264128182083368 -0.01627633906900883 -0.01856176927685738 0.00379269546829164 0.005643085110932589 -0.02221981063485146 -0.02865635976195335 -0.03741450235247612 -0.03455454111099243 0.001753452816046774 -0.005264506209641695 0.001351824845187366 -0.05035532638430595 -0.03647999465465546 0.002423728117719293 0.01743074879050255 0.02130887471139431 -0.007168610580265522 0.009888604283332825 0.04738057777285576 0.1369009017944336 0.159496933221817 0.06233804672956467 0.01590377278625965 0.02595786936581135 0.03714935854077339 0.05407417193055153 -0.009686976671218872 -0.1230583414435387 -0.1252182573080063 -0.03314408659934998 -0.004331753589212894 -0.04793166369199753 -0.1206598952412605 -0.1437894850969315 -0.03211292997002602 0.06956581771373749 0.03731558099389076 3.830887726508081e-05 0.01033591665327549 0.05612348020076752 0.1320830434560776 0.1172640025615692 0.05976401641964912 0.01024022791534662 -0.01538980379700661 0.02473177202045918 0.01025988906621933 -0.008639547973871231 -0.04177702218294144 -0.06719771027565002 -0.03275216743350029 -0.007762217428535223 -0.02665809728205204 -0.005242097191512585 -0.00838233157992363 0.0115160970017314 0.04076798260211945 0.04169906675815582 0.003932255320250988 0.03331262245774269 0.05506432428956032 0.09728468954563141 0.1543306559324265 0.1423723995685577 0.0392390750348568 0.02571405470371246 0.1165242344141006 0.234133318066597 0.3094165921211243 0.2295303344726562 0.01862401515245438 -0.1018270999193192 0.07333327829837799 0.1030471250414848 0.04112924262881279 -0.2194088101387024 -0.4720138609409332 -0.4209899008274078 -0.2132205069065094 -0.05942077934741974 -0.2005595266819 -0.4144991040229797 -0.5512371063232422 -0.3197716474533081 -0.0238976888358593 0.04531155899167061 -0.04720995202660561 -0.07951701432466507 -0.008775161579251289 0.150224044919014 0.2460206598043442 0.2167999744415283 0.129824310541153 0.01824413426220417 0.08317551761865616 0.142748236656189 0.1518379300832748 0.1096591278910637 0.05118577182292938 0.03861800581216812 -0.01515953708440065 -0.02980033680796623 -0.01593157835304737 -0.02950179390609264 -0.004704935010522604 0.01971475593745708 0.01663757488131523 -0.0162889938801527 0.007481649052351713 0.02781586721539497 0.04401020705699921 0.1009794473648071 0.08948600292205811 0.01393250655382872 0.0005714055732823908 0.07379903644323349 0.1953755021095276 0.2501042783260345 0.1947853863239288 0.009119746275246143 -0.08480875939130783 0.06989750266075134 0.1050828620791435 0.06202269718050957 -0.1447049975395203 -0.3353582322597504 -0.3129465878009796 -0.1582089811563492 -0.02131760306656361 -0.1371165364980698 -0.305745005607605 -0.4043370485305786 -0.2105522006750107 0.01527791190892458 0.03951681777834892 -0.0506860613822937 -0.06990212202072144 -0.001433609402738512 0.1147149801254272 0.1851718127727509 0.1619764566421509 0.07719915360212326 -0.02939166501164436 0.0407542884349823 0.09574566036462784 0.09717979282140732 0.05897032469511032 0.02712681889533997 0.01710034161806107 -0.02793706394731998 0.01738836616277695 0.04255902767181396 0.02699755690991879 0.046855129301548 0.0465720146894455 0.01328222081065178 0.0004857771855313331 0.05423884093761444 0.07718976587057114 0.08655056357383728 0.1003299951553345 0.09147794544696808 0.06371217221021652 -0.007099343463778496 0.02479860745370388 0.05201093107461929 0.07988561689853668 0.08416911959648132 0.06081800907850266 0.05776124447584152 0.03052121587097645 0.0327313207089901 0.03458491340279579 0.02380060590803623 0.04951663687825203 0.05129443481564522 0.04160206392407417 -0.006369853392243385 -0.0165218748152256 -0.01452611945569515 -0.04620623216032982 -0.02568449638783932 -0.04399241879582405 -0.02899682521820068 0.005106305237859488 -0.03525009378790855 -0.05586417764425278 -0.0822155550122261 -0.04642688110470772 -0.06019706651568413 -0.05465200170874596 0.03979582712054253 -0.04882651194930077 -0.09879793226718903 -0.1375496089458466 -0.1422765702009201 -0.1313652992248535 -0.09218365699052811 0.001197598641738296 0.05585872754454613 0.1045661345124245 0.1001919507980347 0.1370206624269485 0.1283169835805893 0.07622747868299484 0.06904911249876022 0.1371120810508728 0.1812224239110947 0.201366975903511 0.2202453166246414 0.1915888786315918 0.1607670336961746 0.04384724050760269 0.08495474606752396 0.1322183310985565 0.1697663366794586 0.1754828840494156 0.1461083889007568 0.1284165680408478 0.05010981857776642 0.05860970541834831 0.06988378614187241 0.0560641698539257 0.0790901780128479 0.09407039731740952 0.07600357383489609 -0.03198041021823883 -0.05208743363618851 -0.06144000217318535 -0.1164278984069824 -0.09881627559661865 -0.09316626191139221 -0.07475319504737854 -0.05754107609391212 -0.1223085597157478 -0.1609432250261307 -0.2114017754793167 -0.2013498991727829 -0.1834990084171295 -0.1674122959375381 -0.06198886781930923 -0.1728467047214508 -0.2304771542549133 -0.3019642531871796 -0.3188231587409973 -0.28572678565979 -0.2260609567165375 -0.0736062303185463 -0.0102414395660162 0.03743899241089821 0.02950960956513882 0.05887651443481445 0.06124510988593102 0.009390817023813725 0.01152481976896524 0.08794386684894562 0.1272916346788406 0.145381286740303 0.1567897796630859 0.1394196599721909 0.09903991222381592 0.001800616853870451 0.05768087133765221 0.0981549397110939 0.131669893860817 0.1297437846660614 0.1019010245800018 0.08152263611555099 0.01153867319226265 0.04314843937754631 0.0482233390212059 0.03243190050125122 0.05497534573078156 0.06719256937503815 0.04878427088260651 -0.02743886597454548 -0.01430337689816952 -0.02724122069776058 -0.07162792980670929 -0.05486296862363815 -0.04503823816776276 -0.03428611904382706 -0.0232568271458149 -0.05263025686144829 -0.07537773251533508 -0.1035818383097649 -0.08112691342830658 -0.07799270004034042 -0.09046699106693268 -0.03259072452783585 -0.1067536547780037 -0.1419679373502731 -0.1963927447795868 -0.2128468304872513 -0.1952876448631287 -0.1717943698167801 -0.02059007436037064 -0.03664461150765419 -0.02837688475847244 -0.03392104059457779 -0.0244160071015358 -0.004136278294026852 -0.01063234265893698 -0.06569952517747879 -0.06998654454946518 -0.04522847011685371 -0.0410788469016552 -0.05420424044132233 -0.04776415228843689 -0.04998743534088135 -0.03600193932652473 -0.06102891638875008 -0.03634220361709595 -0.01274325046688318 -0.02233194187283516 -0.03856387361884117 -0.0452820248901844 0.0003053861728403717 -0.04267500713467598 -0.03186812624335289 -0.01324088778346777 -0.002922467421740294 -0.0218823030591011 -0.05806436389684677 0.00292149162851274 -0.03853525593876839 -0.0296156033873558 -0.01655643992125988 -0.01777145639061928 -0.02796076610684395 -0.05101535469293594 0.008291863836348057 -0.01729963906109333 -0.009933422319591045 1.872649590950459e-05 0.0005491660558618605 -0.01057218573987484 -0.02520446479320526 0.01306632440537214 0.01556300465017557 0.0267040953040123 0.02214903011918068 0.02250387333333492 0.00972968153655529 -0.009992076084017754 0.03992966189980507 0.04455943033099174 0.04373404011130333 0.0339357778429985 0.03412037342786789 0.04262255504727364 0.0373813658952713 -0.01023378223180771 0.01576247252523899 0.03074520826339722 0.03151017427444458 0.0168363731354475 0.02807985432446003 0.03547721728682518 -0.004883015528321266 -0.02440151758491993 -0.01491846516728401 0.00378873199224472 0.006319481413811445 0.01163328997790813 0.02652408182621002 0.03380253165960312 -0.03082191571593285 -0.04972871020436287 -0.03158334642648697 -0.0003215772740077227 0.01877706684172153 0.02537129074335098 0.02105847559869289 -0.07226457446813583 -0.1039506271481514 -0.09530679881572723 -0.07594673335552216 -0.03454002365469933 0.009266681969165802 0.01978467218577862 -0.04859592393040657 -0.09503465890884399 -0.1016866788268089 -0.09065628051757812 -0.05487693101167679 0.007405826821923256 0.0295031163841486 0.0248908270150423 -0.01516509894281626 -0.04259077459573746 -0.04267866909503937 -0.02060434594750404 0.02562946081161499 0.02289512008428574 0.04736639559268951 0.03611067682504654 0.02012621983885765 0.01054246723651886 -0.00368305598385632 -0.007113841827958822 -0.002378636039793491 0.04722018912434578 0.05861655250191689 0.05549494922161102 0.03036553598940372 0.02189685590565205 0.03022418357431889 0.00241185468621552 0.005254254676401615 0.01110159512609243 0.02927667275071144 0.02984742820262909 0.02350732125341892 0.03921414539217949 0.05087979882955551 0.001425481867045164 -0.01935289055109024 0.0004756889538839459 0.04024960473179817 0.0602310337126255 0.07359609752893448 0.02432799898087978 -0.05503794923424721 -0.09157263487577438 -0.08072341233491898 -0.05585062503814697 -0.003788917092606425 0.05252857133746147 0.01312550529837608 -0.04799912124872208 -0.09961285442113876 -0.1006719470024109 -0.08261296898126602 -0.04087705165147781 0.0407659187912941 0.03491131961345673 0.0379132442176342 -0.01167350728064775 -0.04039999097585678 -0.0405975840985775 -0.01892134919762611 0.05036051198840141 -0.0107447225600481 -0.01095499005168676 -0.005329260602593422 -0.009510342963039875 -0.01654360629618168 -0.01224678102880716 -0.008490502834320068 -0.0003831955255009234 0.009667044505476952 0.007130350451916456 0.00197847094386816 -0.006619817577302456 0.005152618046849966 0.005906770937144756 -0.00524597242474556 0.002019936917349696 0.002503183204680681 -0.00146404083352536 -0.004000479355454445 0.004109587520360947 0.002392876660451293 -0.004263971000909805 -0.008047347888350487 0.009093636646866798 0.02777209505438805 -0.0005831262096762657 -0.001322975265793502 -0.001803400926291943 -0.005282861180603504 -0.007967024110257626 0.0354529395699501 0.09771987795829773 0.04761069267988205 0.00221300171688199 0.001231177011504769 -0.004543541464954615 -0.01051079574972391 -0.004860084503889084 0.0230311993509531 0.003516969503834844 -0.01323739159852266 0.002447455422952771 -0.009514360688626766 -0.009842525236308575 -0.02134271711111069 -0.02257559448480606 -0.01930209994316101 -0.004273832309991121 -0.004708928521722555 0.002855026163160801 -0.003726189956068993 0.002845702692866325 -0.000551821431145072 -0.004401910584419966 0.0007471776916645467 0.001847384264692664 0.005716443061828613 0.00768415629863739 0.001946706557646394 -0.004330221097916365 -0.00902479887008667 0.005496538709849119 0.006973634008318186 -0.003732504323124886 -0.004034421406686306 -0.01174458954483271 -0.01978059485554695 -0.01737514510750771 -0.002797411754727364 -0.001306351856328547 9.423282608622685e-05 -0.01053506322205067 5.118418630445376e-05 0.01580868847668171 -0.01116466801613569 -0.01208151411265135 -0.00764321256428957 0.002935068449005485 -0.004581129178404808 0.03756534680724144 0.1025697588920593 0.04633830487728119 -0.006887816358357668 -0.003376883687451482 0.008278812281787395 -0.001817269716411829 0.006440723314881325 0.03757788240909576 0.01071696355938911 -0.01300476305186749 0.004494719207286835 0.007604158483445644 0.003505791071802378 -0.005098204128444195 -0.004329167772084475 -0.004463352262973785 0.003261826233938336 0.003057719441130757 0.000357939483365044 -0.003660969203338027 0.003616428468376398 0.003174005076289177 0.0005704330978915095 0.003115014405921102 0.0002352985175093636 0.002237514825537801 0.004579515662044287 0.002279563574120402 0.0001493609161116183 -0.006913309916853905 0.001692966790869832 -0.001735037192702293 -0.00279639451764524 -0.003973626531660557 -0.00538099929690361 -0.008770780637860298 -0.007501275278627872 -0.001341002294793725 -0.006926495581865311 -0.002287619980052114 -0.01204363722354174 0.002057875040918589 0.01870146952569485 -0.004954239819198847 -0.01288051996380091 -0.01564101316034794 -0.002415767638012767 -0.01090045366436243 0.03022057004272938 0.09045334160327911 0.03816592320799828 -0.01320262812077999 -0.0145015912130475 -0.0011949468171224 -0.0142652215436101 -0.00240825884975493 0.0267596822232008 0.00247955834493041 -0.02335471101105213 -0.01189339533448219 -0.003827739972621202 -0.01291406527161598 -0.01715402863919735 -0.01553419698029757 -0.01489362400025129 -0.01174060255289078 -0.01679111458361149 -0.03362909331917763 0.004833680111914873 0.0651172548532486 0.02838867530226707 -0.03527893126010895 -0.02642622217535973 0.003879583906382322 -0.0351581759750843 0.03677629306912422 0.06646551191806793 -0.05755877494812012 -0.1068455427885056 0.007998522371053696 0.01547651737928391 0.03676726296544075 0.07736210525035858 0.004411009605973959 -0.2078180313110352 -0.06321340799331665 0.09346810728311539 0.0183558389544487 0.05504347383975983 0.01494965795427561 -0.1690517216920853 -0.1731337010860443 0.1756984442472458 0.1188739836215973 -0.04029066860675812 -0.008202855475246906 -0.05407582223415375 -0.1336209625005722 0.07283174991607666 0.1822409778833389 -0.01930839009582996 -0.07427217066287994 -0.01238689385354519 -0.01987908966839314 -0.01453355234116316 0.1007072851061821 0.004763418342918158 -0.05607743561267853 0.0197393000125885 -0.01067148521542549 -0.0110344709828496 0.0047486019320786 0.0159651804715395 -0.03126213327050209 0.0002493952051736414 0.06024375930428505 -0.00549799483269453 0.04333233460783958 0.1147366389632225 -0.008287904784083366 -0.1086587831377983 -0.05206169933080673 0.02741270139813423 -0.008974299766123295 0.08332653343677521 0.07070004940032959 -0.2093265354633331 -0.2448313385248184 0.02039072476327419 0.05933181941509247 0.07292841374874115 0.09564384818077087 -0.1082992926239967 -0.4421890079975128 -0.09739428758621216 0.2483844310045242 0.09329529851675034 0.05058933049440384 -0.06345868110656738 -0.3817153573036194 -0.2956734299659729 0.4036514461040497 0.3570453226566315 -0.01628881692886353 -0.06080050766468048 -0.1694840639829636 -0.2215969562530518 0.2251507341861725 0.5097374320030212 0.08887501060962677 -0.167042002081871 -0.03747368231415749 -0.04305713251233101 0.06507403403520584 0.3063564598560333 0.1371049433946609 -0.1300854831933975 -0.1255861073732376 0.01258760690689087 0.01662815362215042 0.0742618665099144 0.09356166422367096 -0.05706125870347023 -0.1084608063101768 -0.03997062891721725 -0.01250684075057507 0.001943488605320454 0.0559157095849514 -0.007626814302057028 -0.05524864047765732 -0.01642153225839138 0.04288662597537041 -0.02471797540783882 0.05145420134067535 0.05708276852965355 -0.1268934905529022 -0.1469313949346542 0.04207178577780724 0.05023745074868202 0.03072560578584671 0.07072385400533676 -0.04551607370376587 -0.2916951775550842 -0.04327841848134995 0.1909724622964859 0.03103126771748066 0.04000044986605644 -0.02011393383145332 -0.2426115274429321 -0.1931154280900955 0.3343677222728729 0.2561976313591003 -0.04591424018144608 -0.03470439463853836 -0.09450708329677582 -0.1449378281831741 0.1910839080810547 0.3748966455459595 0.02624704875051975 -0.1675385683774948 -0.01822141744196415 -0.01207964494824409 0.08080890029668808 0.2465347349643707 0.06889006495475769 -0.1460854858160019 -0.1110899299383163 0.03061163425445557 0.02754946798086166 0.05371008813381195 0.05895836278796196 -0.08415278047323227 -0.1262181550264359 -0.02838540449738503 -0.0002893822675105184 0.009479466825723648 -0.004031460732221603 0.02050353959202766 0.01949540339410305 0.006404525134712458 0.002056652680039406 -0.002703238045796752 -0.0009947066428139806 -0.002038057427853346 0.03377319872379303 0.03653747215867043 0.006614989135414362 -0.02275537513196468 -0.01981836557388306 0.003133648773655295 0.01431567594408989 -0.002542674774304032 0.00532233202829957 0.03647714853286743 -0.001801792532205582 -0.0157460905611515 0.02346706762909889 -0.009740687906742096 -0.1308240741491318 -0.1202062293887138 0.008078691549599171 0.03794769570231438 -0.01297568995505571 0.01398033276200294 0.004464872647076845 -0.05341752991080284 -0.07212436199188232 0.02293192595243454 0.01529229059815407 -0.02274535037577152 -0.001692452235147357 0.008482972159981728 0.008150422014296055 0.01341634150594473 0.02236860617995262 -0.009458001703023911 -0.01258888654410839 -0.01975469663739204 -0.02131480351090431 -0.009263727813959122 0.009278615936636925 0.005359168164432049 -0.004471952561289072 -0.0005757552571594715 -0.007070312742143869 -0.01906492933630943 0.009696395136415958 -0.007628925144672394 -0.01752501539885998 0.003804556326940656 0.003666876116767526 1.704826354398392e-05 -0.009346439503133297 0.01266641635447741 -0.004001203924417496 -0.01557451393455267 -0.01602078229188919 -0.01348915509879589 0.01239848509430885 -0.006367420312017202 -0.07483338564634323 -0.08542900532484055 -0.001469739829190075 0.01083961967378855 0.008130516856908798 0.02742427587509155 -0.05260755494236946 -0.2636910080909729 -0.283259391784668 -0.06104402244091034 0.04246050864458084 -0.0042891725897789 0.02141364477574825 -0.007699723821133375 -0.1290829926729202 -0.1635405123233795 -0.006568181328475475 0.03474535793066025 -0.01094512548297644 0.006418996024876833 0.01573546603322029 0.0007543139508925378 -0.006164092570543289 0.01357145886868238 -0.002522801514714956 0.007519809529185295 -0.002944146282970905 0.0002830832963809371 0.01964719407260418 0.0268497709184885 0.008780856616795063 0.002102822298184037 0.001502105151303113 0.009156341664493084 -0.002693981165066361 0.03129488974809647 0.02320234291255474 0.005363257601857185 0.01639202050864697 0.02209945023059845 0.02751635760068893 0.01700592041015625 0.05322477966547012 0.04157574847340584 0.02986978739500046 0.01965232752263546 0.001923489267937839 0.04282039031386375 0.01201501209288836 -0.05111637711524963 -0.05918682366609573 0.01548154093325138 0.03107135742902756 0.03818538039922714 0.06288132071495056 -0.04142388328909874 -0.2380419373512268 -0.2628984749317169 -0.06758680939674377 0.05445650219917297 0.02193328738212585 0.03789951652288437 -0.01604190841317177 -0.1341791898012161 -0.1809527724981308 -0.04173364862799644 0.02522379159927368 -0.005968654062598944 0.02235609479248524 0.01134942378848791 -0.004163729026913643 -0.0250905305147171 -0.0169885978102684 -0.008066288195550442 0.02242318354547024 0.01665021479129791 0.01709188893437386 0.05048197135329247 0.0446263775229454 0.00935518741607666 0.007885648868978024 -0.01099382620304823 -0.004885889124125242 0.0108292605727911 0.04335565119981766 0.0671461820602417 0.05183080211281776 0.06289638578891754 -0.01814567297697067 -0.03137296438217163 -0.06205003336071968 -0.04306133091449738 0.02402708865702152 0.03469772636890411 0.0824238508939743 0.000789377954788506 -0.01259314641356468 -0.08947736769914627 -0.1673738658428192 -0.1141880974173546 -0.05153506994247437 0.05081560090184212 0.008568067103624344 0.01215934474021196 -0.01646118611097336 -0.1066410392522812 -0.1747429966926575 -0.1253693401813507 -0.05068521574139595 0.03582952544093132 0.07192827761173248 0.05771194770932198 0.01767167076468468 -0.03727301582694054 -0.06650029867887497 -0.0683060884475708 0.0209280401468277 0.09990892559289932 0.1150158643722534 0.07791786640882492 0.04454934969544411 0.01132573280483484 -0.04981723055243492 -0.08746971935033798 -0.02467218786478043 0.03610721975564957 0.06028170511126518 0.02079746872186661 0.04043380171060562 0.007914070971310139 -0.004491772502660751 -0.0004917457117699087 -0.001799510791897774 0.0577857606112957 0.117890790104866 0.1353922188282013 0.1489451080560684 -0.00507251312956214 -0.06030683591961861 -0.1651350855827332 -0.1476339399814606 -0.02971970289945602 0.06928496062755585 0.1398965716362 0.02613944374024868 0.003235127544030547 -0.1706744730472565 -0.3477488458156586 -0.3208282291889191 -0.1560305207967758 0.04034924507141113 0.03954209387302399 0.08480426669120789 -0.005227588582783937 -0.2079955190420151 -0.3758340179920197 -0.3284035921096802 -0.1680147796869278 0.08077817410230637 0.2046176940202713 0.2023654878139496 0.1138135939836502 -0.05211416259407997 -0.1560665816068649 -0.1569474190473557 0.01286265254020691 0.1815153956413269 0.2477643936872482 0.2216118723154068 0.1184946745634079 0.0305901188403368 -0.08149438351392746 -0.1292322427034378 -0.008221342228353024 0.1004155501723289 0.1606920063495636 0.09499651193618774 0.1089618429541588 0.03646399453282356 -0.03340006992220879 -0.003849829779937863 -0.001510770060122013 0.02816297486424446 0.05407426878809929 0.05524867400527 0.09284462779760361 -0.006788663100451231 -0.03584926202893257 -0.1148165985941887 -0.1089477241039276 -0.01571219973266125 0.03764888271689415 0.09566435962915421 0.02604877948760986 0.02097510360181332 -0.09996515512466431 -0.2253103107213974 -0.1952348500490189 -0.08590972423553467 0.04887466877698898 0.03389402851462364 0.08124291896820068 0.0239942017942667 -0.1308082640171051 -0.2425959855318069 -0.2008441090583801 -0.1148371919989586 0.05361795052886009 0.1501396149396896 0.1463079154491425 0.07364049553871155 -0.03180886805057526 -0.100128248333931 -0.1212030798196793 -0.02095556631684303 0.132235586643219 0.1812758296728134 0.1465316414833069 0.07456747442483902 0.01738877221941948 -0.07622231543064117 -0.1427231878042221 -0.03039085306227207 0.05053179338574409 0.09895225614309311 0.05250310525298119 0.07375021278858185 -0.003826320637017488 0.007774012628942728 0.01429360080510378 0.0149597842246294 0.01701327227056026 0.01491023506969213 0.01169100683182478 -9.520645107841119e-05 0.008546135388314724 0.02315027266740799 0.02986106090247631 0.02895042486488819 0.01392596773803234 0.005757983308285475 -0.005531305447220802 0.00244344468228519 0.01921086385846138 0.03504209220409393 0.03143250197172165 0.006114813964813948 -0.002931347116827965 -0.01349725667387247 0.001626881188713014 0.01517674513161182 0.02649509720504284 0.02443277463316917 -0.001513959257863462 -0.0101186940446496 -0.01372992433607578 -0.00273284874856472 0.0009581659105606377 0.01093847583979368 0.01666663959622383 -0.003218823345378041 -0.00962379015982151 -0.010553028434515 -8.369181159650907e-05 0.0004261146241333336 0.003256594529375434 0.005439821165055037 -0.01421370264142752 -0.01529678143560886 -0.01677346415817738 0.007203081157058477 0.005641275551170111 0.002456661080941558 0.0006899670115672052 -0.01458718162029982 -0.01655664294958115 -0.02084801718592644 -0.003885616781190038 -0.000342060171533376 -0.002973677357658744 -0.001710782526060939 -0.003023072611540556 -0.005124002695083618 -0.01427790615707636 -0.001327871344983578 0.007659661583602428 0.0120227662846446 0.01046362426131964 -0.005103778094053268 -0.01054634898900986 -0.01848381385207176 -0.0067455037496984 0.005826488602906466 0.01946779899299145 0.01535843033343554 -0.01068850979208946 -0.01902444660663605 -0.02463245391845703 -0.00882723368704319 0.002650464419275522 0.01553877908736467 0.01348784379661083 -0.01311664190143347 -0.01995846815407276 -0.02061579003930092 -0.009835279546678066 -0.008376053534448147 0.004129070322960615 0.0104271462187171 -0.01044327672570944 -0.0164528600871563 -0.01448413543403149 -0.007093026302754879 -0.008596984669566154 -0.003949333913624287 -0.0004906937247142196 -0.0200135912746191 -0.01972807198762894 -0.01796337775886059 -0.001151280594058335 -0.002208059187978506 -0.004710015375167131 -0.005791896022856236 -0.01901275850832462 -0.01956740021705627 -0.01967785879969597 0.0006790423067286611 0.001562395831570029 -0.00244193198159337 -0.002561733592301607 -0.004785043653100729 -0.008522410877048969 -0.01604628749191761 -0.001348398393020034 0.003725496819242835 0.007556792814284563 0.004877262748777866 -0.008207589387893677 -0.01377360057085752 -0.02032823674380779 -0.007818015292286873 -0.0004317917628213763 0.01193139422684908 0.008959935978055 -0.01208352483808994 -0.01760097779333591 -0.02322771772742271 -0.01250454317778349 -0.004923307336866856 0.008497755043208599 0.008410384878516197 -0.01177380420267582 -0.01689137704670429 -0.01816505379974842 -0.01442480925470591 -0.01425992324948311 -0.0003473729884717613 0.007899264805018902 -0.006696562748402357 -0.01166433189064264 -0.009690083563327789 -0.010210364125669 -0.01242321543395519 -0.007021004799753428 -0.001680651912465692 -0.01662114448845387 -0.01587883941829205 -0.01288015302270651 -0.007611737120896578 -0.00788042601197958 -0.008048540912568569 -0.008201237767934799 -0.01689550466835499 -0.01813278160989285 -0.01754073426127434 -0.02380832843482494 -0.007831365801393986 0.0173265989869833 0.04536541178822517 0.001841309131123126 -0.02652128785848618 -0.02718556299805641 -0.03069733455777168 0.03776174038648605 0.02440645918250084 -0.05200501903891563 0.01590669713914394 0.00346271600574255 -0.02741949073970318 0.01673738658428192 0.04509779438376427 -0.1191135719418526 0.1285997927188873 0.0713874027132988 -0.1524383723735809 0.03402393311262131 0.02503170631825924 -0.1039819270372391 0.04778239503502846 0.2649901807308197 -0.3800891935825348 -0.01376244984567165 0.09705321490764618 -0.01424776017665863 -0.01584815606474876 0.2124886065721512 -0.2418164312839508 -0.2465138584375381 0.3399224281311035 -0.05985525995492935 0.01176398247480392 0.06089629232883453 -0.05395699664950371 -0.2054502218961716 0.2254403382539749 0.07459645718336105 -0.07329268753528595 -0.01418885681778193 -0.01372679322957993 -0.06583238393068314 0.03385920450091362 0.0446028970181942 -0.03269755467772484 0.03476100042462349 0.001991681288927794 -0.03501503169536591 -0.0005784766399301589 0.06949624419212341 0.00596814788877964 -0.03592191636562347 -0.01310497056692839 -0.006319796666502953 -0.01004428416490555 -0.0183152761310339 -0.01659942045807838 0.04586730897426605 -0.023207888007164 -0.0190855972468853 0.02677160315215588 -0.02877769991755486 -0.1400691717863083 0.3210634887218475 0.08783731609582901 -0.2435179352760315 0.03326980769634247 0.04459200799465179 -0.1554623693227768 0.2234976589679718 0.4467017352581024 -0.6528416275978088 -0.08656729757785797 0.1790575832128525 -0.02350564487278461 -0.002838567364960909 0.3530476093292236 -0.4229123592376709 -0.5243114829063416 0.4826488494873047 0.01363599766045809 0.00289087975397706 0.07722620666027069 -0.07623675465583801 -0.360687792301178 0.2612925171852112 0.223425105214119 -0.09887522459030151 -0.002943519037216902 -0.02865214273333549 -0.07353584468364716 0.03936466947197914 0.1065070629119873 -0.02434187568724155 -0.01963912323117256 0.04045814275741577 0.009314736351370811 -0.02748788520693779 -0.01007375027984381 -0.01822603307664394 0.0008877970976755023 0.05483338236808777 0.02092240378260612 0.009271644055843353 -0.04518480226397514 -0.07412852346897125 0.04901525005698204 0.05427380278706551 0.01937620155513287 0.02411821857094765 -0.0415935255587101 -0.2142735570669174 0.209044024348259 0.1501459032297134 -0.1332883387804031 0.01069014798849821 0.02503125555813313 -0.1781884133815765 0.1253184825181961 0.4444059431552887 -0.3902961015701294 -0.00806804932653904 0.08953434973955154 -0.06395340710878372 -0.03586721047759056 0.3233031332492828 -0.2071197181940079 -0.2916716039180756 0.393884688615799 -0.1076422855257988 -0.03020782768726349 0.07564008235931396 -0.01233860198408365 -0.1931148916482925 0.2438108175992966 0.08084002137184143 -0.1582107096910477 0.0274652037769556 0.02410854957997799 -0.001388413715176284 0.07125026732683182 0.006213822402060032 -0.1090478897094727 -0.02189513109624386 0.001963546732440591 -0.001962067326530814 -0.007678383961319923 -0.01379398815333843 -0.01668740622699261 -0.01016726158559322 -0.005967350676655769 0.006422305945307016 0.001284995465539396 -0.01226305309683084 -0.02183561399579048 -0.02376772277057171 -0.01539040170609951 -0.009458995424211025 0.004303413908928633 0.01010684296488762 0.004906314890831709 -0.01470668334513903 -0.01896703243255615 -0.01879804208874702 -0.005421010311692953 0.008394882082939148 0.005172077100723982 -0.003995268605649471 -0.03322260826826096 -0.0383552648127079 -0.01620105654001236 -0.01322871260344982 0.001982644200325012 0.002361860359087586 0.001596178160980344 0.01521280501037836 -0.0007103669922798872 -0.01456193719059229 -0.01702733710408211 -0.002882564906030893 -0.008353937417268753 0.009596636518836021 0.0921628549695015 0.08480057120323181 -0.001923877280205488 -0.0266973190009594 -0.01075553242117167 -0.01666320487856865 -0.01953599229454994 0.02654261514544487 0.02608995139598846 -0.008945898152887821 